/* Generated by Edge Impulse
 *
 * Permission is hereby granted, free of charge, to any person obtaining a copy
 * of this software and associated documentation files (the "Software"), to deal
 * in the Software without restriction, including without limitation the rights
 * to use, copy, modify, merge, publish, distribute, sublicense, and/or sell
 * copies of the Software, and to permit persons to whom the Software is
 * furnished to do so, subject to the following conditions:
 *
 * The above copyright notice and this permission notice shall be included in
 * all copies or substantial portions of the Software.
 *
 * THE SOFTWARE IS PROVIDED "AS IS", WITHOUT WARRANTY OF ANY KIND, EXPRESS OR
 * IMPLIED, INCLUDING BUT NOT LIMITED TO THE WARRANTIES OF MERCHANTABILITY,
 * FITNESS FOR A PARTICULAR PURPOSE AND NONINFRINGEMENT. IN NO EVENT SHALL THE
 * AUTHORS OR COPYRIGHT HOLDERS BE LIABLE FOR ANY CLAIM, DAMAGES OR OTHER
 * LIABILITY, WHETHER IN AN ACTION OF CONTRACT, TORT OR OTHERWISE, ARISING FROM,
 * OUT OF OR IN CONNECTION WITH THE SOFTWARE OR THE USE OR OTHER DEALINGS IN THE
 * SOFTWARE.
 */
// Generated on: 10.12.2022 22:22:35

#include <stdio.h>
#include <stdlib.h>
#include "edge-impulse-sdk/tensorflow/lite/c/builtin_op_data.h"
#include "edge-impulse-sdk/tensorflow/lite/c/common.h"
#include "edge-impulse-sdk/tensorflow/lite/micro/micro_mutable_op_resolver.h"
#include "edge-impulse-sdk/porting/ei_classifier_porting.h"

#if EI_CLASSIFIER_PRINT_STATE
#if defined(__cplusplus) && EI_C_LINKAGE == 1
extern "C" {
    extern void ei_printf(const char *format, ...);
}
#else
extern void ei_printf(const char *format, ...);
#endif
#endif

#if defined __GNUC__
#define ALIGN(X) __attribute__((aligned(X)))
#elif defined _MSC_VER
#define ALIGN(X) __declspec(align(X))
#elif defined __TASKING__
#define ALIGN(X) __align(X)
#endif

#ifndef EI_MAX_SCRATCH_BUFFER_COUNT
#define EI_MAX_SCRATCH_BUFFER_COUNT 4
#endif // EI_MAX_SCRATCH_BUFFER_COUNT

#ifndef EI_MAX_OVERFLOW_BUFFER_COUNT
#define EI_MAX_OVERFLOW_BUFFER_COUNT 10
#endif // EI_MAX_OVERFLOW_BUFFER_COUNT

using namespace tflite;
using namespace tflite::ops;
using namespace tflite::ops::micro;

namespace {

constexpr int kTensorArenaSize = 4112;

#if defined(EI_CLASSIFIER_ALLOCATION_STATIC)
uint8_t tensor_arena[kTensorArenaSize] ALIGN(16);
#elif defined(EI_CLASSIFIER_ALLOCATION_STATIC_HIMAX)
#pragma Bss(".tensor_arena")
uint8_t tensor_arena[kTensorArenaSize] ALIGN(16);
#pragma Bss()
#elif defined(EI_CLASSIFIER_ALLOCATION_STATIC_HIMAX_GNU)
uint8_t tensor_arena[kTensorArenaSize] ALIGN(16) __attribute__((section(".tensor_arena")));
#else
#define EI_CLASSIFIER_ALLOCATION_HEAP 1
uint8_t* tensor_arena = NULL;
#endif

static uint8_t* tensor_boundary;
static uint8_t* current_location;

template <int SZ, class T> struct TfArray {
  int sz; T elem[SZ];
};
enum used_operators_e {
  OP_FULLY_CONNECTED, OP_SOFTMAX,  OP_LAST
};
struct TensorInfo_t { // subset of TfLiteTensor used for initialization from constant memory
  TfLiteAllocationType allocation_type;
  void* data;
  TfLiteIntArray* dims;
  size_t bytes;
};
struct NodeInfo_t { // subset of TfLiteNode used for initialization from constant memory
  struct TfLiteIntArray* inputs;
  struct TfLiteIntArray* outputs;
  void* builtin_data;
  used_operators_e used_op_index;
};

TfLiteContext ctx{};
TfLiteTensor tflTensors[11];
TfLiteEvalTensor tflEvalTensors[11];
TfLiteRegistration registrations[OP_LAST];
TfLiteNode tflNodes[4];

const TfArray<2, int> tensor_dimension0 = { 2, { 1,900 } };
const ALIGN(16) float tensor_data1[5] = { 0.5593298077583313, -0.89282739162445068, -0.0055895969271659851, 0.13593842089176178, 0.20730917155742645, };
const TfArray<1, int> tensor_dimension1 = { 1, { 5 } };
const ALIGN(16) float tensor_data2[40] = { -0.11199396848678589, 0.14617656171321869, -0.24237817525863647, 0.27352803945541382, 0.2713177502155304, 0.27568471431732178, 0.22615844011306763, -0.12223280966281891, 0.27672678232192993, -0.44601595401763916, -0.092016153037548065, -0.20854274928569794, -0.22079645097255707, -0.13578389585018158, -0.16322235763072968, -0.33301857113838196, -0.057963535189628601, 0.32411465048789978, -0.015861943364143372, 0.21003705263137817, 0.27269169688224792, -0.29741865396499634, -0.17452719807624817, -0.15882574021816254, 0.17899148166179657, -0.27338999509811401, -0.46691673994064331, -0.26447126269340515, 0.092603914439678192, 0.40297594666481018, 0.26458391547203064, 0.059903744608163834, 0.05522865429520607, 0.40311208367347717, 0.067865945398807526, -0.14087161421775818, -0.4198056161403656, 0.37663659453392029, 0.63036650419235229, 0.16434864699840546, };
const TfArray<1, int> tensor_dimension2 = { 1, { 40 } };
const ALIGN(16) float tensor_data3[80] = { -0.13750037550926208, -0.56740766763687134, -0.21303144097328186, 0.043317768722772598, -0.30673274397850037, -0.51359856128692627, -0.12557362020015717, -0.1315961480140686, -0.22443197667598724, -0.54201352596282959, 0.092790693044662476, -0.16769689321517944, -0.30958643555641174, -0.1311301589012146, -0.13653101027011871, -0.3156198263168335, -0.42433798313140869, -0.54691612720489502, -0.097023867070674896, -0.47606983780860901, -0.37778446078300476, -0.42281726002693176, -0.029080459848046303, -0.66276019811630249, -0.40150567889213562, -0.061406850814819336, -0.18152032792568207, 0.00022460344189312309, -0.44431400299072266, -0.1965818852186203, -0.38047805428504944, -0.23512256145477295, -0.27754718065261841, 0.015557660721242428, -0.099358007311820984, -0.12815304100513458, -0.25618153810501099, -0.325094074010849, -0.44826871156692505, -0.44428643584251404, -0.3510175347328186, 0.015233356505632401, -0.25793319940567017, -0.42875829339027405, -0.34088331460952759, -0.19492910802364349, -0.31513684988021851, -0.063107408583164215, -0.42053964734077454, -0.3499581515789032, -0.36235392093658447, -0.29140418767929077, -0.28390529751777649, -0.025487285107374191, -0.11830376088619232, -0.17966447770595551, -0.23757304251194, -0.096564672887325287, -0.067798055708408356, -0.45235937833786011, 0.0032483711838722229, -0.19419826567173004, -0.51897943019866943, -0.30657625198364258, -0.32286381721496582, -0.21992732584476471, -0.20764252543449402, -0.37663686275482178, -0.47073265910148621, -0.20900742709636688, -0.40551501512527466, -0.35281741619110107, 0.010333256796002388, -0.30481857061386108, -0.5886988639831543, -0.56224024295806885, -0.16074685752391815, -0.29247304797172546, -0.50852882862091064, -0.40438973903656006, };
const TfArray<1, int> tensor_dimension3 = { 1, { 80 } };
const ALIGN(16) float tensor_data4[80*900] = { 
  -0.066107027232646942, -0.17126384377479553, -0.14520591497421265, -0.10402686148881912, 0.179611936211586, 0.07188531756401062, -0.066553704440593719, -0.17404554784297943, -0.035966437309980392, -0.08181404322385788, 0.12193891406059265, -0.026682058349251747, -0.054213356226682663, -0.17829392850399017, -0.0011416932102292776, -0.04123196005821228, 0.019374709576368332, 0.034819256514310837, -0.001257209456525743, -0.06322314590215683, 0.062227237969636917, -0.04877510666847229, 0.052597858011722565, 0.054728936403989792, -0.00076770124724134803, -0.14227752387523651, 0.019724646583199501, -0.036713816225528717, 0.026260284706950188, 0.076643049716949463, 0.048521202057600021, -0.037024971097707748, 0.10784561932086945, -0.037208337336778641, 0.01271456852555275, 0.050530880689620972, 0.0031155478209257126, -0.093535430729389191, 0.068334773182868958, -0.015306012704968452, 0.014582228846848011, -0.026176299899816513, -0.092096686363220215, -0.12161008268594742, 0.063269622623920441, -0.0005231775576248765, 0.069979816675186157, -0.013219822198152542, -0.084975831210613251, -0.080053806304931641, -0.023451931774616241, 0.0036210410762578249, 0.052452206611633301, 0.032807532697916031, -0.0090423757210373878, -0.0057776719331741333, 0.035949833691120148, 0.037837080657482147, 0.10300066322088242, 0.062892206013202667, -0.005452355369925499, 0.024060675874352455, 0.021263904869556427, -0.019835000857710838, 0.057050935924053192, 0.04202893003821373, 0.03353818878531456, -0.066395662724971771, -0.053352478891611099, 0.030387479811906815, -0.013786648400127888, -0.035965211689472198, 0.048713456839323044, -0.099118784070014954, 0.017873359844088554, -0.1280641108751297, 0.0038890873547643423, 0.023734744638204575, 0.094946682453155518, -0.063823744654655457, 0.03501109778881073, -0.033698759973049164, 0.041902836412191391, 0.029742581769824028, 0.072963573038578033, 0.053324170410633087, -0.10330545902252197, -0.13411605358123779, 0.05809248611330986, 0.10153788328170776, 0.0081367585808038712, -0.052159655839204788, -0.1081915944814682, -0.21595713496208191, 0.012512490153312683, -0.0076054278761148453, 0.020885048434138298, -0.023447850719094276, 0.022169945761561394, -0.12361987680196762, 0.018820108845829964, 0.069243066012859344, -0.0043306872248649597, 0.00020914620836265385, -0.038815304636955261, -0.083441831171512604, 0.028606973588466644, 0.035882432013750076, -0.029418054968118668, 0.0070223361253738403, -0.020541409030556679, -0.019997704774141312, -0.015938488766551018, -0.010807815939188004, 0.0015994023997336626, 0.0084625324234366417, 0.00088187574874609709, -0.055715594440698624, 0.069727867841720581, 0.033622190356254578, 0.077438391745090485, -0.082460060715675354, -0.01628415659070015, -0.0035192028153687716, 0.12495126575231552, 0.11813974380493164, -0.0094577036798000336, 0.071868479251861572, -0.0017271527322009206, 0.092631839215755463, 0.12134706228971481, 0.05888424813747406, 0.0046683521941304207, -0.056130629032850266, -0.011678418144583702, 0.12762622535228729, 0.075629681348800659, -0.0157469492405653, 0.10483651608228683, 0.058309756219387054, 0.073926977813243866, 0.13497065007686615, 0.069153502583503723, 0.0033330863807350397, 0.065956078469753265, 0.10229054838418961, 0.013145649805665016, 0.093623995780944824, 0.13496474921703339, 0.085858955979347229, -0.036434389650821686, 0.056040540337562561, 0.10735731571912766, 0.067243576049804688, 0.012569610960781574, 0.11429009586572647, -0.014788388274610043, -0.03804875910282135, -0.041128475219011307, 0.018790191039443016, 0.023209851235151291, 0.021485932171344757, 0.014968398958444595, 0.074505351483821869, -0.04985523596405983, 0.02062048576772213, 0.10604522377252579, 0.056556835770606995, -0.056919436901807785, 0.064714096486568451, -0.033212956041097641, 0.045878440141677856, 0.039191365242004395, 0.024829132482409477, -0.032078087329864502, 0.087167024612426758, 0.076192215085029602, 0.021522395312786102, -0.014134544879198074, 0.069600984454154968, -0.041023816913366318, 0.040564242750406265, -0.079770274460315704, 0.077654004096984863, -0.058605097234249115, -0.0018860852578654885, -0.0712728351354599, -0.075052417814731598, 0.05799739807844162, -0.018918732181191444, -0.053169816732406616, 0.014249535277485847, -0.034045189619064331, -0.045213691890239716, 0.073451310396194458, 0.00095114466967061162, -0.083487905561923981, 0.08269374817609787, -0.094294711947441101, -0.081452533602714539, -0.0021786629222333431, 0.035648290067911148, 0.051261607557535172, 0.066413834691047668, -0.025798819959163666, -0.0086581055074930191, 0.0057556512765586376, 0.049427136778831482, 0.00069469149457290769, -0.0037224746774882078, -0.13190007209777832, 0.03041984885931015, -0.011833662167191505, 0.11375615000724792, 0.063057795166969299, 0.088019974529743195, -0.13161151111125946, -0.080927945673465729, -0.032994825392961502, 0.033658847212791443, -0.035203512758016586, 0.044582288712263107, -0.0087760267779231071, -0.09401974081993103, 0.035236585885286331, 0.059937193989753723, 0.088227599859237671, -0.0041491314768791199, -0.17077085375785828, -0.083257704973220825, 0.032337978482246399, 0.088810257613658905, 0.060476135462522507, 0.064070791006088257, -0.12100373953580856, -0.057052422314882278, -0.056974012404680252, -0.0095460349693894386, 0.10765918344259262, 0.023039404302835464, -0.0030873492360115051, -0.011079722084105015, -0.077573731541633606, 0.091899387538433075, 0.037140578031539917, 0.066175214946269989, -0.090844146907329559, -0.012582994997501373, 0.03416917473077774, -0.018395362421870232, 0.028332797810435295, 0.13636787235736847, -0.073346041142940521, -0.02901524119079113, -0.0038012529257684946, 0.0024291682057082653, 0.013844622299075127, 0.035957250744104385, -0.077779576182365417, -0.050835315138101578, -0.034957572817802429, 0.050409615039825439, -0.024526780471205711, 0.042843766510486603, -0.021310782060027122, 0.019260196015238762, -0.10507911443710327, -0.017755601555109024, -0.018603434786200523, 0.0581342913210392, -0.12906323373317719, 0.025936715304851532, -0.12793567776679993, 0.0028281931299716234, -0.11359839886426926, 0.051591958850622177, -0.061756372451782227, 0.039397329092025757, -0.11193131655454636, 0.059310633689165115, -0.041251573711633682, 0.038588743656873703, -0.041786462068557739, -0.0598953478038311, -0.073003850877285004, 0.043199844658374786, -0.094022989273071289, 0.029908239841461182, 0.0097138863056898117, -0.11257535219192505, 0.0024521974846720695, 0.083753906190395355, -0.05960468202829361, 0.11182098090648651, -0.046390023082494736, -0.0017010183073580265, 0.0015528748044744134, 0.047100737690925598, 0.032679811120033264, 0.039706695824861526, -0.033722035586833954, -0.062669239938259125, -0.030765548348426819, 0.15379220247268677, 0.049166183918714523, -0.0061503397300839424, -0.11718691885471344, 0.0064088650979101658, -0.19027438759803772, 0.088981024920940399, 0.015516212210059166, 0.079629987478256226, -0.0038603974971920252, -0.0032881321385502815, -0.033666439354419708, 0.054557472467422485, 0.043359018862247467, 0.061808034777641296, -0.028470179066061974, -0.081359721720218658, -0.16034694015979767, -0.047709114849567413, -0.071025244891643524, -0.03951655700802803, -0.01921466551721096, 0.012492453679442406, -0.017356693744659424, -0.049021027982234955, 0.0060187405906617641, 0.039957135915756226, 0.0077457064762711525, -0.050140522420406342, 0.024272220209240913, 0.040922913700342178, 0.0061701568774878979, 0.13534075021743774, -0.069080859422683716, -0.025176117196679115, -0.058657195419073105, 0.17091615498065948, 0.018658360466361046, 0.035930920392274857, -0.13430531322956085, -0.0054182778112590313, -0.042550951242446899, 0.14549785852432251, 0.035712286829948425, 0.079015694558620453, -0.057447414845228195, 0.11590863764286041, 0.0011095561785623431, 0.033325672149658203, 0.019745148718357086, 0.0024368066806346178, -0.10227495431900024, 0.0069201863370835781, -0.081769727170467377, 0.080235116183757782, -0.041969660669565201, 0.055938199162483215, -0.10062872618436813, -0.022407760843634605, -0.068171896040439606, 0.094706408679485321, 0.024637522175908089, -0.092478498816490173, -0.084005892276763916, 0.015086157247424126, 0.014393876306712627, 0.023547045886516571, -0.011184836737811565, 0.079821556806564331, -0.026520451530814171, 0.02062634564936161, 0.079804845154285431, -0.079401776194572449, -0.085023678839206696, -0.045785758644342422, -0.023422440513968468, -0.049174372106790543, -0.0099082784727215767, -0.056061666458845139, -0.042473483830690384, 0.057084701955318451, -0.030305085703730583, 0.10858625918626785, 0.040502868592739105, -0.04667205736041069, 0.059852853417396545, -0.043957572430372238, -0.096847288310527802, -0.015377052128314972, -0.034616459161043167, -0.10067120939493179, -0.051104363054037094, -0.032944951206445694, -0.014904532581567764, -0.027635704725980759, -0.018707361072301865, -0.17885707318782806, 0.0084746154025197029, 0.071735821664333344, -0.043534431606531143, 0.1241438016295433, -0.09937681257724762, -0.14287690818309784, 0.093681655824184418, 0.031290065497159958, -0.016910627484321594, 0.0089290356263518333, -0.11493617296218872, -0.1445343941450119, 0.045117087662220001, -0.037755869328975677, -0.0042738039046525955, -0.02487463690340519, -0.088928148150444031, 0.0054098418913781643, 0.042022738605737686, -0.046367079019546509, -0.023483011871576309, 0.090469762682914734, -0.0026045734994113445, 0.026213785633444786, -0.035041797906160355, -0.021853141486644745, -0.051725581288337708, 0.027543796226382256, 0.0093069588765501976, 0.034944992512464523, -0.13889777660369873, -0.028904503211379051, -0.088363856077194214, 0.051805052906274796, 0.043854206800460815, -0.024954214692115784, -0.035812094807624817, 0.014766469597816467, -0.0020838051568716764, 0.088832825422286987, 0.054722104221582413, -0.02007521316409111, -0.032236970961093903, 0.01158839650452137, -0.036458753049373627, 0.041145194321870804, -0.058938823640346527, -0.097995229065418243, -0.077507942914962769, -0.051094628870487213, -0.061748266220092773, 0.090021386742591858, 0.029282810166478157, -0.052324578166007996, -0.14311681687831879, 0.041498001664876938, -0.068089686334133148, 0.018226524814963341, 0.063801378011703491, 0.066961973905563354, -0.079590737819671631, -0.043782897293567657, -0.0015876273391768336, 0.092332422733306885, 0.053505696356296539, -0.035844873636960983, -0.045149270445108414, 0.028994187712669373, -0.094604894518852234, 0.0048760538920760155, 0.013110139407217503, -0.01678062416613102, -0.05670195072889328, -0.036059781908988953, -0.097754843533039093, 0.085159115493297577, 0.052892953157424927, -0.031523667275905609, -0.080330818891525269, -0.086203768849372864, -0.056163251399993896, 0.028457824140787125, 0.024220874533057213, 0.016135595738887787, -0.057698100805282593, -0.026434000581502914, -0.087045595049858093, -0.047980356961488724, -0.036049500107765198, -0.060196075588464737, -0.10014180094003677, -0.058380734175443649, -0.034510795027017593, -0.078447699546813965, 0.088711977005004883, 0.071675688028335571, -0.14512434601783752, -0.044734414666891098, -0.074894033372402191, 0.040077831596136093, 0.078413940966129303, -0.021418323740363121, -0.024031082168221474, -0.068989120423793793, 0.030035233125090599, 0.04540986567735672, 0.10672583431005478, -0.10026853531599045, -0.14864265918731689, -0.0464644655585289, 0.052048336714506149, 0.029523424804210663, 0.048245426267385483, -0.075316190719604492, -0.13134306669235229, -0.082490868866443634, -0.082707881927490234, -0.030433570966124535, -0.0059073972515761852, 0.048988636583089828, -0.082328014075756073, 0.035364281386137009, -0.016617845743894577, 0.0066134701482951641, -0.063819140195846558, -0.027425872161984444, -0.045513145625591278, 0.013125966303050518, -0.060616087168455124, 0.015997383743524551, -0.036798126995563507, -0.012735969386994839, -0.026344334706664085, 0.027928823605179787, -0.063277855515480042, -0.015231126919388771, -0.062855057418346405, -0.017567878589034081, -0.060134314000606537, -0.030404141172766685, -0.11473923176527023, -0.063709937036037445, -0.043488796800374985, 0.039273113012313843, -0.1368696391582489, -0.062491737306118011, 0.025586683303117752, -0.031470093876123428, 0.074855901300907135, -0.038367602974176407, -0.19590140879154205, 0.00046870883670635521, -0.077945567667484283, 0.065741799771785736, -0.041427452117204666, -0.10031981766223907, -0.15886616706848145, -0.0012941715540364385, 0.0023031390737742186, -0.0089489519596099854, -0.055062312632799149, 0.00034203645191155374, -0.13598939776420593, -0.050952494144439697, 0.017010880634188652, 0.019813995808362961, -0.0052011348307132721, -0.12053194642066956, -0.076887458562850952, -0.06525006890296936, -0.010555466637015343, -0.069986119866371155, 0.010939928703010082, -0.082667365670204163, -0.08036448061466217, 0.060617510229349136, -0.075763113796710968, 0.044980488717556, 0.096385933458805084, -0.14221540093421936, -0.066286176443099976, 0.049299899488687515, 0.00016911918646655977, -0.008759436197578907, 0.1058383584022522, -0.070040948688983917, -0.083212077617645264, -0.03557199239730835, -0.0034522027708590031, 0.045850709080696106, -0.0026347290258854628, -0.08357200026512146, 0.07031385600566864, -0.082302100956439972, -0.043760258704423904, -0.046087287366390228, 0.062312643975019455, -0.050980288535356522, -0.074486389756202698, -0.027880601584911346, -0.10536636412143707, 0.032017238438129425, -0.011228488758206367, -0.16727478802204132, -0.025479499250650406, -0.10425981879234314, -0.096185699105262756, 0.051377251744270325, 0.081249818205833435, -0.1922561377286911, -0.10285466909408569, -0.15765149891376495, -0.040712106972932816, -0.054575670510530472, 0.032722707837820053, -0.13579574227333069, -0.03809279203414917, -0.046562559902667999, 0.047342143952846527, 0.046869043260812759, 0.054315343499183655, -0.11786153167486191, -0.10022295266389847, -0.10388392955064774, 0.022914202883839607, -0.10682161897420883, 0.14981339871883392, -0.050158984959125519, -0.071513846516609192, -0.1136377677321434, 0.10512261092662811, -0.15103867650032043, 0.051142379641532898, -0.089897535741329193, -0.078541897237300873, -0.039155412465333939, 0.074029959738254547, -0.0084509626030921936, 0.020216874778270721, -0.01650436595082283, -0.075289584696292877, -0.10741753131151199, 0.086693361401557922, -0.078378193080425262, 0.0035392902791500092, -0.12170401215553284, -0.057477913796901703, -0.001793529954738915, 0.0365719273686409, -0.055088359862565994, 0.046069908887147903, -0.10424185544252396, 0.027808003127574921, -0.009513084776699543, 0.14140841364860535, -0.092096783220767975, 0.026167107746005058, -0.041117336601018906, 0.023171406239271164, -0.035180080682039261, 0.015202658250927925, -0.12488453090190887, -0.011529387906193733, 0.056308243423700333, -0.067853532731533051, -0.16286136209964752, 0.034493155777454376, -0.11229513585567474, 0.11957797408103943, 0.066095635294914246, -0.20541779696941376, -0.1022455245256424, -0.025047067552804947, -0.083508133888244629, -0.00046613498125225306, 0.037407767027616501, -0.085584200918674469, -0.052709892392158508, 0.0023386562243103981, -0.080090552568435669, 0.018136162310838699, -0.092648714780807495, -0.047004986554384232, -0.042644083499908447, -0.0798143669962883, -0.069787420332431793, 0.11425835639238358, -0.01066491287201643, -0.13455298542976379, 0.033375609666109085, 0.002422994002699852, -0.096126630902290344, 0.0089922519400715828, -0.094848111271858215, -0.071480177342891693, 0.0038261986337602139, 0.027050113305449486, -0.045298121869564056, -0.070644043385982513, -0.0025127956178039312, -0.025516672059893608, -0.017297180369496346, -0.052101608365774155, -0.084552042186260223, 0.087711162865161896, -0.033386975526809692, -0.050645232200622559, 0.047907494008541107, -0.050738904625177383, -0.016806241124868393, 0.057790171355009079, 0.01154034212231636, 0.030025042593479156, 0.027277916669845581, -0.18012955784797668, -0.027527116239070892, -0.039057556539773941, -0.058105990290641785, -0.078041315078735352, 0.044771008193492889, 0.14821185171604156, -0.056295808404684067, -0.19822977483272552, 0.017607932910323143, 0.11239135265350342, -0.019889609888195992, 0.18839238584041595, -0.13013359904289246, -0.042813193053007126, -0.086935266852378845, 0.05056401714682579, -0.034453339874744415, 0.11029532551765442, -0.067853502929210663, 0.0084492741152644157, -0.043245051056146622, -0.06319938600063324, -0.063179053366184235, 0.17122900485992432, -0.074039183557033539, -0.050229292362928391, -0.011592020280659199, -0.001262076199054718, 0.05195515975356102, 0.091661699116230011, 0.013382797129452229, 0.047711342573165894, 0.11862121522426605, -0.047384683042764664, -0.025004446506500244, -0.022921068593859673, -0.058335341513156891, 0.085674457252025604, 0.028720090165734291, -0.053026020526885986, 0.020844569429755211, 0.0065335314720869064, -0.14135240018367767, 0.07536257803440094, 0.1389099508523941, -0.093275435268878937, 0.027025746181607246, 0.14919242262840271, -0.06032741442322731, 0.034223057329654694, 0.015621418133378029, -0.011300383135676384, -0.0027136181015521288, 0.19508105516433716, -0.039890680462121964, 0.021262155845761299, 0.084348790347576141, 0.0070837857201695442, -0.008521650917828083, 0.046218901872634888, -0.052279476076364517, 0.082708336412906647, 0.011291091330349445, -0.069591552019119263, -0.0069641582667827606, 0.082056961953639984, 0.013968039304018021, -0.02581169456243515, 0.018259698525071144, -0.061045184731483459, -0.063548833131790161, -0.022233858704566956, -0.040936760604381561, -0.0015993487322703004, 0.0066306181252002716, -0.024178400635719299, 0.033949844539165497, 0.055242575705051422, 0.036009747534990311, 0.10934372991323471, 0.081237480044364929, -0.051357775926589966, -0.022650549188256264, 0.075862683355808258, 0.0059741996228694916, 0.075711801648139954, -0.039721321314573288, -0.10520289838314056, 0.054495532065629959, 0.037694290280342102, 0.030871821567416191, 0.088363602757453918, 0.010360183194279671, -0.080434441566467285, 0.082232490181922913, 0.030700536444783211, 0.014244294725358486, -0.02192302979528904, 0.0035107072908431292, 0.065266788005828857, 0.071729980409145355, 0.034515086561441422, -0.06412968784570694, -0.058989718556404114, -0.050667844712734222, 0.0049136742018163204, -0.017759198322892189, -0.11972147971391678, 0.053493682295084, -0.033407177776098251, -0.038689605891704559, -0.0455588698387146, -0.03163011372089386, -0.052045490592718124, -0.039757698774337769, -0.0054998523555696011, -0.15171465277671814, 0.0073545225895941257, 0.0053321733139455318, -0.04906187579035759, 0.073454424738883972, 0.034076746553182602, -0.10139255970716476, 0.0456065833568573, -0.034339725971221924, -0.062247328460216522, 0.11222412437200546, 0.0863361656665802, -0.16962532699108124, 0.052871458232402802, 0.066975295543670654, -0.03532048687338829, 0.03043697401881218, -0.0079207746312022209, -0.11058145016431808, 0.045356813818216324, 0.024382703006267548, -0.10712475329637527, 0.018805786967277527, 0.047536425292491913, -0.03479544073343277, -0.050881292670965195, -0.0020719545427709818, -0.12551844120025635, 0.025291278958320618, 0.017757236957550049, -0.06148780882358551, -0.053646270185709, -0.029337184503674507, -0.10549978166818619, -0.072037979960441589, 0.014082559384405613, 0.090111151337623596, -0.053266227245330811, 0.032813694328069687, -0.0051859677769243717, 0.0013030319241806865, -0.010028728283941746, 0.058018770068883896, -0.037168219685554504, -0.031142977997660637, -0.059652779251337051, 0.041946258395910263, -0.10722271353006363, 0.094862684607505798, 0.036548402160406113, -0.0076040173880755901, -0.18631844222545624, -0.0086186798289418221, -0.095427848398685455, 0.18219311535358429, 0.065780431032180786, -0.011755304411053658, -0.18793107569217682, 0.07502090185880661, -0.20960888266563416, 0.1592562347650528, -0.032519109547138214, 0.015794571489095688, -0.28387394547462463, 0.075930230319499969, -0.071240715682506561, 0.2072119265794754, -0.073026798665523529, 0.0027424250729382038, 
  0.07641708105802536, 0.017103968188166618, -0.11161798983812332, -0.16591115295886993, -0.093278631567955017, -0.0014329181285575032, 0.07074369490146637, -0.009167882613837719, -0.15917478501796722, -0.15796014666557312, -0.080848842859268188, -0.06285540759563446, 0.015877917408943176, -0.047654867172241211, -0.15924987196922302, -0.0310166385024786, -0.074136152863502502, 0.025519281625747681, -0.010988580994307995, -0.069657571613788605, -0.032619040459394455, -0.093382649123668671, -0.10202709585428238, -0.12649744749069214, 0.055144019424915314, -0.04092879593372345, -0.12077076733112335, -0.061715483665466309, -0.059002570807933807, -0.12827959656715393, 0.070078156888484955, 0.035976994782686234, -0.025818025693297386, -0.085472196340560913, -0.069761432707309723, -0.0042854244820773602, -0.019623791798949242, 0.030640287324786186, -0.090405605733394623, -0.069993443787097931, -0.12690940499305725, -0.070945538580417633, 0.090517640113830566, 0.056420151144266129, -0.046016443520784378, 0.0098989279940724373, -0.15763799846172333, 0.022109519690275192, 0.0015568074304610491, -0.065555863082408905, 0.0085408585146069527, 0.046108819544315338, -0.14104044437408447, -0.02092679962515831, 0.095808342099189758, -0.010207557119429111, -0.024682264775037766, -0.0078506786376237869, -0.10991751402616501, -0.032391451299190521, 0.06019938737154007, -0.039660438895225525, -0.039807569235563278, -0.03992602601647377, -0.13861064612865448, 0.023346519097685814, 0.02410198375582695, 0.021576238796114922, -0.043608512729406357, 0.072159133851528168, -0.044484607875347137, 0.013097771443426609, 0.025061732158064842, 0.0579095259308815, -0.029321435838937759, 0.074135825037956238, -0.060814116150140762, 0.01393603440374136, 0.010744080878794193, 0.0039796545170247555, 0.077773720026016235, -0.031287506222724915, -0.068958252668380737, -0.079456962645053864, -0.092702165246009827, 0.071923807263374329, 0.099123790860176086, 0.064249493181705475, 0.05180276557803154, -0.12773722410202026, 0.013426757417619228, -0.072144821286201477, 0.062585771083831787, 0.11888261884450912, -0.015153597109019756, -0.12574386596679688, -0.084663994610309601, -0.015595467761158943, 0.016388894990086555, 0.037091337144374847, -0.0063591473735868931, 0.02111329697072506, -0.023375976830720901, -0.033371161669492722, 0.070927143096923828, 0.023483285680413246, 0.02767840214073658, 0.012047160416841507, -0.094717428088188171, -0.017593830823898315, 0.084175392985343933, -0.038431093096733093, -0.013411067426204681, -0.071355260908603668, -0.022846145555377007, 0.047117646783590317, -0.091514229774475098, 0.078648053109645844, -0.017746081575751305, -0.038468960672616959, -0.058566991239786148, -0.050259813666343689, 0.069968253374099731, 0.025528183206915855, -0.040368825197219849, 0.064294710755348206, 0.0076820333488285542, 0.021174199879169464, 0.10436081141233444, -0.037505459040403366, 0.0045083132572472095, -0.087561316788196564, -3.1404488254338503e-05, 0.03516601026058197, 0.020101182162761688, 0.079290948808193207, -0.11477040499448776, -0.083970189094543457, -0.012224389240145683, -0.011143372394144535, -0.021378904581069946, 0.078670114278793335, -0.094499379396438599, -0.026202715933322906, -0.060072168707847595, -0.023411566391587257, 0.035773314535617828, 0.020820057019591331, -0.098635770380496979, -0.14961564540863037, -0.034888561815023422, -0.10248128324747086, 0.039472546428442001, 0.063267916440963745, -0.053478866815567017, -0.011562231928110123, -0.089922375977039337, -0.10209948569536209, 0.08940587192773819, 0.0046939621679484844, -0.10332611948251724, -0.03526441752910614, 0.007631493266671896, -0.020273420959711075, 0.054084833711385727, 0.0039339559152722359, -0.16204904019832611, 0.015759119763970375, -0.053351540118455887, -0.044288177043199539, 0.020847434177994728, 0.00085228064563125372, 0.0058387443423271179, 0.033137831836938858, 0.0487363301217556, 0.044837746769189835, -0.00019283848814666271, 0.001232326845638454, 0.05754920095205307, -0.047898426651954651, -0.20012938976287842, -0.089350663125514984, 0.023886680603027344, -0.1136106476187706, -0.053669843822717667, -0.073984496295452118, -0.20278097689151764, -0.061755314469337463, -0.088344678282737732, 0.0088202916085720062, 0.062737360596656799, -0.079327002167701721, -0.18784154951572418, -0.12485240399837494, -0.046522896736860275, 0.069980613887310028, -0.083136074244976044, -0.0095070358365774155, -0.19549143314361572, -0.15296262502670288, 0.0061522121541202068, 0.0025857423897832632, -0.066579073667526245, -0.082880780100822449, -0.12631721794605255, -0.042964078485965729, -0.006701167207211256, 0.015970019623637199, -0.057866215705871582, -0.052158579230308533, -0.1569732278585434, -0.079332984983921051, -0.044174134731292725, -0.040369413793087006, -0.071824796497821808, -0.13119378685951233, -0.11672463268041611, -0.15868952870368958, 0.059713602066040039, -0.03716006875038147, -0.032292701303958893, -0.03816276416182518, -0.0089013176038861275, -0.11366420239210129, -0.012785585597157478, -0.044160515069961548, 0.04248742014169693, -0.12500226497650146, -0.057993452996015549, -0.10024762898683548, -0.0044638072140514851, 0.12224894016981125, 0.016095429658889771, -0.1296713650226593, -0.073669157922267914, -0.12776277959346771, -0.025865107774734497, 0.11737581342458725, 0.17112216353416443, -0.047814350575208664, -0.061202920973300934, -0.12092515081167221, -0.09752451628446579, 0.023837469518184662, 0.1702747642993927, -0.077884852886199951, -0.067696630954742432, -0.098340101540088654, -0.072275951504707336, 0.13678865134716034, 0.12684366106987, -0.057002205401659012, -0.076537348330020905, -0.15233811736106873, -0.034008026123046875, 0.051454875618219376, 0.085441663861274719, -0.1145351231098175, -0.053263384848833084, -0.010167761705815792, 0.045552007853984833, 0.10183148086071014, 0.011865658685564995, -0.030901797115802765, 0.061789717525243759, -0.022858124226331711, 0.02091694250702858, 0.10889584571123123, 0.016794724389910698, -0.1675841361284256, -0.072044387459754944, -0.039544321596622467, -0.043310970067977905, 0.033447153866291046, 0.032904639840126038, -0.072208791971206665, -0.099428676068782806, -0.015467063523828983, 0.06148330494761467, 0.11171828210353851, -0.0024256939068436623, -0.064857214689254761, 0.034701593220233917, -0.033054675906896591, 0.12377037107944489, 0.12432555109262466, -0.023352250456809998, -0.094704262912273407, 0.027849873527884483, -0.06087285652756691, 0.13850036263465881, 0.11851588636636734, 0.02290559746325016, -0.0532379150390625, -0.030499158427119255, -0.029849128797650337, 0.11752527207136154, 0.049645461142063141, 0.063059575855731964, 0.045407798141241074, -0.036296531558036804, -0.14451213181018829, 0.056986935436725616, 0.084976881742477417, -0.0017901732353493571, -0.016445338726043701, -0.010536770336329937, -0.024311542510986328, 0.0039126998744904995, 0.014445645734667778, 0.039884902536869049, 0.0098301731050014496, 0.071458280086517334, 0.014345529489219189, -0.05885639414191246, -0.066711708903312683, 0.082377523183822632, -0.0088796624913811684, -0.035926945507526398, -0.13816940784454346, -0.02956770546734333, 0.071136884391307831, 0.092054478824138641, -0.05191773921251297, 0.11450129747390747, -0.032274257391691208, 0.07943793386220932, 0.035425368696451187, -0.074916422367095947, 0.029045157134532928, 0.002125744940713048, -0.0057987435720860958, 0.012535935267806053, 0.065749101340770721, -0.06591053307056427, 0.022872468456625938, 0.01613103412091732, 0.053231172263622284, -0.033942047506570816, 0.046612568199634552, -0.024760512635111809, 0.024201562628149986, 0.10127533227205276, 0.014935827814042568, -0.051135972142219543, 0.062951654195785522, -0.076913356781005859, 0.046374768018722534, -0.013492302969098091, -0.08890843391418457, -0.081512480974197388, 0.10410236567258835, -0.076926089823246002, -0.067985907196998596, 0.11021897941827774, -0.094837740063667297, 0.015558457002043724, 0.035749632865190506, 0.041800778359174728, 0.075563199818134308, -0.018126407638192177, -0.045693229883909225, -0.0048153852112591267, 0.085194692015647888, 0.036456864327192307, 0.044553477317094803, 0.087777391076087952, 0.01593678817152977, -0.075481995940208435, 0.077081255614757538, 0.048267152160406113, 0.0043657110072672367, 0.052882462739944458, 0.067694216966629028, -0.064317896962165833, 0.092647336423397064, 0.07809913158416748, -0.01228898111730814, -0.0053768092766404152, 0.020934274420142174, -0.1154264360666275, 0.035065237432718277, -0.092443108558654785, 0.10040988028049469, 0.018154274672269821, 0.023890670388936996, -0.03681756928563118, 0.13357238471508026, -0.06168660894036293, 0.031099218875169754, 0.068406075239181519, 0.016628606244921684, 0.01234043575823307, 0.11061268299818039, -0.081572636961936951, 0.024848936125636101, 0.13156834244728088, 0.010379084385931492, -0.10285592824220657, 0.18457461893558502, -0.059552155435085297, -0.036212313920259476, 0.21010522544384003, 0.047432795166969299, -0.10055785626173019, 0.11766596883535385, 0.00067953421967104077, 0.053116090595722198, 0.12020935118198395, -0.023841997608542442, -0.10490226745605469, 0.15613493323326111, -0.018419332802295685, 0.092432528734207153, 0.13013964891433716, 0.051202885806560516, -0.034390918910503387, -0.024538613855838776, 0.024222642183303833, 0.089179307222366333, 0.11875846236944199, -0.036490168422460556, -0.011432744562625885, -0.0064139589667320251, -0.037295948714017868, -0.02790551446378231, 0.10335550457239151, -0.026915743947029114, -0.064625881612300873, -0.022270897403359413, -0.018618354573845863, -0.022164687514305115, 0.050815947353839874, -0.048020496964454651, -0.040396228432655334, -0.021864289417862892, 0.032549053430557251, 0.067002922296524048, 0.15493245422840118, 0.0097922133281826973, -0.0029499332886189222, -0.083980202674865723, 0.0069287805818021297, 0.0078018982894718647, 0.064669780433177948, -0.010138851590454578, 0.10867166519165039, -0.070772640407085419, -0.11136146634817123, 0.10398416221141815, 0.067662961781024933, -0.00997904222458601, -0.073613494634628296, 0.066823773086071014, 0.061034992337226868, 0.026223849505186081, 0.036066744476556778, 0.011647597886621952, -0.030149942263960838, -0.078982613980770111, 0.035402227193117142, 0.015534071251749992, -0.012413724325597286, -0.019445700570940971, -0.0050896028988063335, -0.10357704013586044, 0.011935745365917683, -0.056664947420358658, 0.049738883972167969, 0.093603894114494324, -0.069481156766414642, 0.075171835720539093, 0.076842904090881348, -0.0252187829464674, 0.054281894117593765, -0.044149152934551239, -0.092029571533203125, 0.071535103023052216, -0.045667767524719238, -0.1198551207780838, -0.004732922650873661, -0.12273824959993362, -0.02131347730755806, 0.075460322201251984, -0.013098590075969696, -0.042481414973735809, 0.092818371951580048, -0.082109257578849792, -0.11283385008573532, 0.19106785953044891, -0.058936860412359238, -0.00044573325430974364, 0.068141482770442963, 0.024516373872756958, -0.064790248870849609, 0.1350073367357254, 0.021505620330572128, 0.011179404333233833, 0.037369254976511002, 0.038669522851705551, -0.060066398233175278, 0.22188711166381836, -0.084586746990680695, 0.018789567053318024, -0.062487058341503143, 0.019601155072450638, -0.088608823716640472, 0.12662607431411743, -0.097757436335086823, 0.059636268764734268, 0.054115928709506989, 0.022536462172865868, -0.036566201597452164, 0.17909796535968781, -0.061366569250822067, 0.071564257144927979, 0.010736118070781231, -0.017227713018655777, -0.0014422043459489942, -0.019470052793622017, 0.0079795457422733307, 0.034156680107116699, 0.029536839574575424, 0.027452830225229263, 0.047090779989957809, -0.025957042351365089, -0.13669346272945404, -0.012638559564948082, -0.014808936975896358, 0.026496430858969688, 0.062130521982908249, 0.067233964800834656, -0.10851220041513443, 0.019167359918355942, -0.032356444746255875, 0.052310064435005188, -0.013467798940837383, -0.035558983683586121, -0.11824886500835419, 0.004333477932959795, -0.034701522439718246, 0.12615182995796204, 0.01432359404861927, -0.047238942235708237, -0.061765510588884354, -0.0057076858356595039, 0.049421336501836777, 0.17549636960029602, -0.012389887124300003, 0.070154167711734772, -0.090635821223258972, 0.077300935983657837, 0.033854681998491287, 0.039534956216812134, -0.086674675345420837, 0.11832956224679947, -0.12756983935832977, 0.0026065770070999861, 0.074177093803882599, -0.052893362939357758, -0.084731623530387878, 0.054116178303956985, -0.075980968773365021, -0.025850199162960052, 0.028845863416790962, 0.088222622871398926, 0.068308994174003601, -0.063448481261730194, -0.16203829646110535, -0.036136850714683533, 0.032471694052219391, 0.098334029316902161, 0.10787571221590042, -0.11734343320131302, -0.22421672940254211, -0.076385386288166046, -0.016700878739356995, 0.02647017315030098, -0.020145891234278679, -0.034241043031215668, -0.22610823810100555, -0.1164509505033493, -0.085745364427566528, 0.15776257216930389, 0.094171732664108276, 0.01343581173568964, -0.11200320720672607, -0.08644181489944458, -0.094724930822849274, 0.10909207165241241, 0.075819216668605804, -0.031584136188030243, -0.17989030480384827, -0.14317387342453003, -0.1322990208864212, 0.069749847054481506, 0.044121481478214264, -0.098640479147434235, -0.2008005678653717, -0.063342384994029999, -0.12356269359588623, 0.073842830955982208, -0.0563555508852005, -0.086227491497993469, -0.14059029519557953, -0.070159994065761566, -0.055999599397182465, 0.14914444088935852, 0.017269561067223549, 8.7762113253120333e-05, -0.055465906858444214, -0.060367055237293243, 0.0014194370014593005, 0.024179039523005486, -0.046142656356096268, -0.082315877079963684, 0.013867594301700592, 0.010272335261106491, -0.037001125514507294, 0.10233158618211746, 0.031877782195806503, -0.0048167533241212368, 0.024336278438568115, -0.1203329861164093, -0.082759030163288116, 0.060135550796985626, 0.0086669009178876877, -0.084019258618354797, -0.086016982793807983, -0.092493340373039246, -0.12772548198699951, 0.062861472368240356, -0.10466531664133072, -0.059253230690956116, -0.028277821838855743, -0.044407021254301071, 0.015387147665023804, 0.042662609368562698, 0.029441341757774353, -0.033852290362119675, -0.040735207498073578, -0.1371966153383255, -0.099526837468147278, 0.013757726177573204, 0.082092121243476868, -0.022826632484793663, -0.09727448970079422, -0.066125571727752686, -0.061165299266576767, -0.032193291932344437, -0.062465082854032516, -0.060375779867172241, -0.084705546498298645, -0.093805998563766479, -0.04988778755068779, 0.0014378007035702467, -0.042763151228427887, -0.026626855134963989, -0.091717854142189026, -0.035907130688428879, -0.0058564585633575916, 0.027301805093884468, 0.024506710469722748, 0.049203358590602875, 0.060203269124031067, 0.021972652524709702, -0.0065076504833996296, 0.051736351102590561, 0.018340693786740303, -0.11872463673353195, 0.055570289492607117, 0.075395509600639343, -0.074546791613101959, 0.097009792923927307, 0.062437385320663452, 0.00096875440794974566, 0.074703924357891083, 0.010268400423228741, -0.031164159998297691, 0.02219090610742569, -0.0015537474537268281, -0.023567629978060722, -0.0033523484598845243, 0.03887677937746048, -0.054985888302326202, 0.12569715082645416, -0.045301608741283417, -0.067697003483772278, 0.020691005513072014, 0.026920635253190994, 0.003196394769474864, 0.045899488031864166, 0.037223402410745621, 0.0058074179105460644, -0.013221328146755695, -0.041302308440208435, -0.03587307408452034, -0.016114113852381706, -0.02235361747443676, 0.10440380871295929, 0.027506710961461067, -0.039778135716915131, -0.038014601916074753, -0.049919944256544113, 0.066546618938446045, -0.0359642393887043, -0.076835900545120239, -0.056701499968767166, -0.0048841699026525021, -0.028006132692098618, 0.15765823423862457, 0.11746557056903839, -0.04405396431684494, 0.056966520845890045, -0.03231251984834671, -0.035810239613056183, 0.15217664837837219, 0.10701166093349457, 0.038002431392669678, -0.061091452836990356, -0.018589578568935394, -0.040809106081724167, 0.12093827128410339, -0.017282743006944656, -0.044759266078472137, -0.055237289518117905, -0.032876785844564438, 0.080419391393661499, 0.025874391198158264, -0.019572077319025993, -0.031136129051446915, -0.098383255302906036, -0.049681879580020905, -0.041291419416666031, -0.0014311578124761581, 0.033150259405374527, 0.088797636330127716, -0.083028815686702728, -0.076149024069309235, -0.093742229044437408, 0.075368978083133698, 0.086114026606082916, 0.012676814571022987, -0.058673929423093796, -0.0026005515828728676, 0.012352842837572098, 0.031547658145427704, 0.07066374272108078, 0.044945891946554184, -0.032973397523164749, -0.02689572237432003, -0.004760141484439373, -0.023843312636017799, 0.10231471806764603, 0.024074878543615341, 0.052559953182935715, -0.075407274067401886, -0.023365974426269531, 0.0028804279863834381, -0.025696203112602234, 0.086581438779830933, 0.0093368468806147575, -0.0045137796550989151, 0.0014753555878996849, 0.086768433451652527, 0.12006326764822006, 0.047168932855129242, -0.13987718522548676, -0.13281223177909851, -0.0085365548729896545, 0.15331239998340607, 0.06546764075756073, 0.01233985647559166, -0.082261815667152405, 0.011881733313202858, 0.021668683737516403, 0.050808288156986237, 0.11948267370462418, 0.021085595712065697, -0.027628032490611076, 0.0082671148702502251, -0.09269694983959198, 0.10380882024765015, 0.065949000418186188, 0.11377356201410294, -0.062501952052116394, -0.052829429507255554, 0.048713605850934982, -0.035852570086717606, -0.046098116785287857, -0.0055130310356616974, 0.023798493668437004, 0.030155465006828308, 0.055092804133892059, -0.048443116247653961, -0.10128322243690491, 0.091881304979324341, -0.034634392708539963, 0.023322004824876785, -0.0055899200960993767, -0.092436902225017548, 0.047216873615980148, 0.034017130732536316, -0.055393561720848083, 0.019759928807616234, 0.004211103543639183, 0.021745145320892334, 0.021945551037788391, -0.051454216241836548, -0.070491991937160492, -0.043826233595609665, 0.064491339027881622, 0.11431223154067993, 0.0086631560698151588, -0.075590565800666809, -0.002291777404025197, 0.07920103520154953, 0.091414906084537506, 0.063353337347507477, -0.050412625074386597, -0.082543320953845978, -0.083155632019042969, 0.085474930703639984, 0.00087155954679474235, -0.03749050572514534, -0.051853898912668228, 0.082439862191677094, -0.1584412157535553, -0.028632009401917458, -0.094634316861629486, 0.046968493610620499, -0.034890923649072647, 0.14960944652557373, -0.12434167414903641, 0.020758047699928284, -0.0094841336831450462, 0.020106153562664986, -0.050743278115987778, 0.046158198267221451, -0.050209391862154007, 0.038681831210851669, -0.034683097153902054, 0.031957268714904785, -0.029296725988388062, 0.040359489619731903, -0.040585711598396301, 4.9559632316231728e-05, 0.022904157638549805, 0.075647853314876556, 0.032152369618415833, 0.10302355140447617, -0.071709565818309784, 0.055193580687046051, -0.023842636495828629, 0.05736638605594635, 0.067973494529724121, 0.12221271544694901, -0.0055132564157247543, -0.024868223816156387, 0.034134324640035629, 0.041124012321233749, 0.038447264581918716, 0.10314493626356125, 0.037968005985021591, -0.0076863011345267296, 0.038627274334430695, -0.077884875237941742, -0.039687182754278183, 0.16581743955612183, 0.043634064495563507, 0.064188636839389801, 0.01604212261736393, 0.0012840547133237123, -0.1126183345913887, 0.11491118371486664, 0.043515898287296295, -0.017213128507137299, -0.040541227906942368, -0.0015393098583444953, -0.071974806487560272, 0.028849991038441658, 0.094576053321361542, 0.084051750600337982, -0.045061327517032623, -0.023927075788378716, -0.14465866982936859, 0.063635870814323425, -0.018290458247065544, 0.081627435982227325, 0.080376565456390381, -0.0058910325169563293, -0.0011741680791601539, 0.09157264232635498, 0.10348951071500778, 0.10749223828315735, -0.046078961342573166, 0.00094572064699605107, -0.0065123233944177628, 0.20085464417934418, 0.077285848557949066, 
  0.02497369796037674, 0.00071245734579861164, -0.010897844098508358, 0.0039022569544613361, -0.13965225219726562, 0.11293069273233414, 0.001548506086692214, 0.014615722000598907, -0.034809760749340057, 0.04407602921128273, 0.016785094514489174, 0.035544909536838531, 0.11577215790748596, 0.053222555667161942, 0.075412280857563019, 0.016503393650054932, 0.012878288514912128, 0.058793198317289352, 0.029271773993968964, -0.028142521157860756, 0.044902786612510681, 0.021970609202980995, -0.048752252012491226, -0.11545517295598984, 0.11799928545951843, -0.1211436539888382, 0.043705485761165619, -0.074865140020847321, 0.015324941836297512, -0.0034459000453352928, 0.12194488942623138, -0.12944179773330688, -0.070202767848968506, -0.092272751033306122, -0.020683908835053444, -0.033671129494905472, 0.086981460452079773, -0.10333263874053955, -0.07680695503950119, -0.051072385162115097, -0.011743385344743729, 0.042101938277482986, 0.021070772781968117, 0.029680624604225159, -0.071308791637420654, -0.061581667512655258, -0.1277114599943161, 0.080145582556724548, 0.024971950799226761, -0.024970687925815582, 0.078119806945323944, -0.031398095190525055, -0.043271671980619431, 0.048695098608732224, 0.04159257560968399, -0.0036434796638786793, 0.035047255456447601, -0.069299072027206421, -0.047428451478481293, 0.010265355929732323, 0.029117006808519363, -0.0055179130285978317, 0.071360960602760315, -0.11741070449352264, 0.035275675356388092, -0.0067743579857051373, 0.010616874322295189, -0.046148087829351425, -0.036709889769554138, 0.026369201019406319, 0.0059224278666079044, -0.061407260596752167, 0.042628653347492218, 0.041559725999832153, 0.051423206925392151, -0.064230278134346008, 0.010413172654807568, 0.012294908054172993, 0.068505443632602692, -0.07068779319524765, -0.077548250555992126, -0.075600810348987579, 0.082491889595985413, -0.028479957953095436, -0.0081742368638515472, -0.056668046861886978, -0.017946939915418625, -0.16094319522380829, 0.039192643016576767, 0.10494645684957504, 0.05233406275510788, -0.080239281058311462, -0.019062638282775879, -0.13443472981452942, 0.12133783847093582, 0.016601262614130974, 0.083728857338428497, 0.063941836357116699, 0.024393787607550621, -0.060446139425039291, 0.11416739970445633, 0.030331920832395554, 0.01686522364616394, 0.011308073997497559, -0.021752264350652695, -0.0075853317975997925, 0.051681999117136002, 0.035039849579334259, 0.035174831748008728, -0.060232721269130707, 0.021778037771582603, 0.016302071511745453, 0.070241987705230713, 0.053313262760639191, -0.041411664336919785, 0.018103983253240585, -0.026231931522488594, -0.011410954408347607, -0.015452483668923378, 0.11079953610897064, 0.0012142730411142111, -0.051622100174427032, -0.052223213016986847, 0.022160623222589493, 0.0069562387652695179, 0.12629619240760803, -0.030728885903954506, 0.092500433325767517, -0.059158317744731903, 0.04151562973856926, -0.017188804224133492, 0.072290308773517609, 0.00034368320484645665, 0.081678181886672974, 0.053861618041992188, 0.00095717504154890776, 0.052013944834470749, 0.040702108293771744, 0.030509833246469498, 0.0086565874516963959, -0.04869316890835762, -0.018543394282460213, 0.058751005679368973, 0.037934560328722, -0.083498097956180573, 0.084419161081314087, 0.067995160818099976, -0.028454940766096115, 0.11395367234945297, 0.061782363802194595, -0.067330919206142426, 0.12996721267700195, -0.016450174152851105, 0.057932958006858826, 0.091208502650260925, 0.13175661861896515, -0.12637171149253845, -0.021191548556089401, 0.10409214347600937, 0.12225677073001862, -0.0093575064092874527, 0.14966422319412231, -0.087450034916400909, 0.0085442652925848961, -0.028019631281495094, 0.072946600615978241, 0.09317353367805481, 0.2109028697013855, -0.091775834560394287, 0.04104287177324295, -0.035473592579364777, -0.031332764774560928, 0.075372926890850067, 0.17176154255867004, -0.18161602318286896, 0.13619191944599152, 0.094180077314376831, -0.059903964400291443, 0.084678560495376587, 0.18759515881538391, 0.019565671682357788, -0.11562959104776382, 0.019232623279094696, -0.038191471248865128, 0.019943317398428917, 0.096601180732250214, 0.092225953936576843, -0.04442373663187027, 0.11819511651992798, 0.029250822961330414, 0.020774329081177711, 0.087159469723701477, 0.025498302653431892, -0.07834557443857193, 0.067894533276557922, -0.061368871480226517, -0.01181512139737606, 0.11840859800577164, -0.078862234950065613, -0.058841843158006668, -0.014601465314626694, -0.02590370737016201, 0.048909533768892288, 0.094724930822849274, 0.034168638288974762, -0.0094277840107679367, 0.080345027148723602, -0.012525844387710094, 0.080927290022373199, 0.14980745315551758, 0.04137745127081871, -0.031078217551112175, -0.022844493389129639, -0.046661369502544403, 0.01429730374366045, 0.10844184458255768, -0.070389434695243835, 0.023282546550035477, 0.020298847928643227, 0.01045138668268919, -0.014648054726421833, 0.064070627093315125, -0.0018982766196131706, 0.0031180095393210649, -0.041260275989770889, -0.0052602840587496758, 0.074380017817020416, 0.13108530640602112, -0.025695642456412315, -0.062888897955417633, 0.048756606876850128, -0.040731094777584076, 0.086848899722099304, 0.1054706797003746, -0.065950222313404083, -0.039728093892335892, 0.025169204920530319, -0.020817030221223831, 0.0046781771816313267, 0.20236648619174957, 0.056540444493293762, -0.025680532678961754, -0.057577729225158691, -0.044309761375188828, 0.11765893548727036, 0.17266733944416046, -0.063030488789081573, 0.09838411957025528, 0.034316748380661011, 0.035873021930456161, -0.042080387473106384, 0.1288256049156189, 0.023897105827927589, 0.0015427811304107308, -0.0065293279476463795, -0.02914159931242466, 0.01148112490773201, 0.16615022718906403, 0.07353924959897995, 0.063603430986404419, 0.025809656828641891, -0.079069659113883972, -0.014302078634500504, 0.10068778693675995, -0.0020104493014514446, -0.043998543173074722, 0.069365650415420532, -0.046561550348997116, -0.040756892412900925, 0.15595316886901855, -0.035329237580299377, -0.035304587334394455, -0.019189542159438133, -0.0016312429215759039, 0.00054507434833794832, 0.14311227202415466, 0.029384838417172432, 0.05413045734167099, -0.026024356484413147, 0.10332334786653519, 0.0049794921651482582, 0.045536573976278305, 0.0085274232551455498, -0.053422819823026657, -0.027472658082842827, 0.036075349897146225, 0.055534046143293381, 0.1068396121263504, 0.011510280892252922, 0.065595939755439758, 0.09928632527589798, -0.024680625647306442, 0.081846654415130615, 0.11084935814142227, -0.052163254469633102, -0.043376974761486053, -0.079574666917324066, -0.10002750903367996, 0.099739737808704376, 0.080387726426124573, 0.097587943077087402, -0.027780536562204361, -0.077204935252666473, -0.047740112990140915, -0.012377160601317883, 0.028055816888809204, 0.083077192306518555, -0.023867635056376457, -0.015882067382335663, -0.00546245276927948, 0.075052924454212189, 0.11960704624652863, 0.084415420889854431, 0.061377905309200287, 0.030726103112101555, 0.067173123359680176, 0.0055243209935724735, 0.043852750211954117, 0.014781941659748554, 0.058013148605823517, -0.017813039943575859, 0.035487718880176544, 0.084436565637588501, 0.11874385178089142, -0.03935597836971283, 0.063986778259277344, -0.045256175100803375, 0.062595933675765991, -0.058641601353883743, 0.043692350387573242, -0.052708104252815247, 0.034696821123361588, 0.043688982725143433, -0.040749166160821915, -0.042472869157791138, 0.083066552877426147, -0.016610525548458099, 0.10119481384754181, -0.0096311280503869057, 0.079413928091526031, 0.058430608361959457, 0.17984530329704285, -0.021645067259669304, 0.057098411023616791, -0.01929851621389389, 0.11389055848121643, 0.031446259468793869, 0.10180917382240295, -0.11656405031681061, 0.022006373852491379, -0.02963750995695591, 0.027566967532038689, 0.084801115095615387, 0.055736560374498367, -0.18950198590755463, 0.059749841690063477, -0.01859666034579277, 0.041210368275642395, -0.0015051064547151327, 0.12395128607749939, -0.11817111074924469, 0.048483014106750488, -0.010773069225251675, 0.078880928456783295, -0.0070458655245602131, 0.027594177052378654, -0.058217190206050873, -0.058977872133255005, -0.011229945346713066, -0.043649736791849136, 0.082670599222183228, 0.046432614326477051, -0.051864288747310638, -0.024781817570328712, -0.035000883042812347, -0.02419554814696312, 0.008738391101360321, 0.12401787936687469, -0.010952247306704521, -0.073555268347263336, -0.070226021111011505, 0.010179903358221054, 0.051952961832284927, 0.071501247584819794, -0.15333090722560883, -0.036727122962474823, -0.041587740182876587, 0.0058213360607624054, 0.043170444667339325, 0.070876024663448334, -0.092383548617362976, -0.080014251172542572, 0.063349470496177673, 0.084559619426727295, 0.018812146037817001, 0.10830280929803848, -0.045563586056232452, 0.0066683422774076462, -0.026332197710871696, 0.13279993832111359, 0.046110723167657852, 0.1507069319486618, -0.066163338720798492, 0.1530153751373291, -0.052784610539674759, -0.0019948720000684261, 0.04361705482006073, 0.1101633608341217, -0.010684817098081112, 0.070628158748149872, 0.039734095335006714, -0.014915167354047298, 0.048276830464601517, 0.036463961005210876, 0.037882436066865921, -0.011145497672259808, -0.0067203235812485218, 0.088234961032867432, 0.0016294379020109773, 0.1065196692943573, -0.012433775700628757, -0.013917386531829834, 0.024588603526353836, -0.01935870572924614, 0.056973755359649658, 0.11591457575559616, -0.092060849070549011, 0.057310059666633606, -0.10176486521959305, 0.098953552544116974, -0.0089594405144453049, 0.059678692370653152, -0.062940381467342377, 0.1172761395573616, -0.014989247545599937, 0.070854999125003815, 0.01776035875082016, -0.0098240282386541367, -0.023239487782120705, 0.020226415246725082, 0.066143512725830078, 0.077408134937286377, 0.0023364122025668621, 0.11744852364063263, -0.035302337259054184, 0.022084442898631096, 0.049355927854776382, -0.0018059395952150226, 0.040565468370914459, 0.039679300040006638, -0.071411706507205963, -0.069511674344539642, 0.067601427435874939, 0.016810933127999306, -0.01954895444214344, -0.0078211147338151932, 0.0041333618573844433, -0.12520600855350494, 0.0012571632396429777, 0.01761111244559288, -0.058297131210565567, -0.0058439667336642742, 0.0088117308914661407, -0.066719584167003632, -0.060867451131343842, -0.033969629555940628, 0.0049278009682893753, 0.045771293342113495, -0.11089301109313965, -0.11238417774438858, 0.064213097095489502, -0.022361490875482559, 0.083087697625160217, 0.060094717890024185, -0.089244052767753601, -0.017344741150736809, 0.018103687092661858, -0.069296211004257202, -0.035461913794279099, 0.089348316192626953, -0.14388684928417206, 0.024228457361459732, 0.0256382767111063, 0.0095373839139938354, 0.062352441251277924, 0.066518895328044891, -0.063658937811851501, -0.039393112063407898, -0.062854059040546417, 0.0029388705734163523, -0.098059527575969696, 0.0085854427888989449, 0.0077181607484817505, -0.030991127714514732, -0.030918560922145844, 0.032681569457054138, -0.056028880178928375, 0.065126396715641022, 0.061404205858707428, -0.012893373146653175, 0.0039857705123722553, -0.035864464938640594, -0.059369347989559174, 0.035155080258846283, 0.040894687175750732, 0.12021896243095398, 0.037194103002548218, -0.10076601058244705, -0.078692197799682617, 0.072872824966907501, 0.095739997923374176, 0.031739164143800735, -0.03831540048122406, -0.07133869081735611, -0.066199995577335358, 0.045773707330226898, -0.03366590291261673, 0.12387388199567795, -0.049020640552043915, 0.062803901731967926, 0.046564124524593353, 0.061377912759780884, -0.017207197844982147, 0.021642439067363739, -0.0025577794294804335, 0.038416113704442978, -0.072623297572135925, -0.042201809585094452, 0.057902716100215912, -0.046942867338657379, -0.062307395040988922, 0.10426957905292511, -0.061006806790828705, 0.085420124232769012, -0.044646944850683212, 0.064519360661506653, -0.092065006494522095, -0.026684502139687538, -0.040865104645490646, 0.064078241586685181, 0.053095500916242599, 0.008467135950922966, -0.00344494404271245, -0.037575263530015945, -0.051391739398241043, 0.033412259072065353, -0.0076220333576202393, 0.057068381458520889, 0.032301511615514755, -0.024141479283571243, -0.047571457922458649, -0.0089937727898359299, -0.036087490618228912, 0.082311257719993591, -0.045660380274057388, 0.092667214572429657, -0.098075039684772491, -0.063498467206954956, -0.012979127466678619, 0.025735169649124146, -0.010078561492264271, -0.00210602767765522, -0.033238649368286133, -0.0090026054531335831, -0.039773125201463699, -0.072566375136375427, -0.026580261066555977, -0.015053707174956799, -0.06467234343290329, -0.0594441257417202, 0.019542239606380463, -0.078291811048984528, 0.055382441729307175, 0.04614638164639473, -0.11813240498304367, 0.0007477346807718277, -0.026268795132637024, 0.040828458964824677, 0.089447155594825745, 0.043542616069316864, 0.020746564492583275, 0.0010377157013863325, 0.087495140731334686, 0.051399029791355133, -0.0026846304535865784, 0.10428410768508911, -0.045328561216592789, 0.0053924191743135452, 0.091838650405406952, -0.055570434778928757, 0.070624604821205139, 0.13189184665679932, 0.071347229182720184, -0.010381042025983334, 0.05898347869515419, 0.011944577097892761, 0.084719046950340271, 0.045323986560106277, -0.036426860839128494, 0.060423649847507477, -0.032423894852399826, 0.053765207529067993, 0.030945459380745888, 0.12172596901655197, 0.001240752637386322, 0.067548222839832306, 0.023243466392159462, 0.0015181181952357292, 0.056907057762145996, 0.019724356010556221, 0.0062399986200034618, 0.038496911525726318, -0.015602135099470615, -0.004708354827016592, -0.022071490064263344, 0.028381569311022758, -0.1020524799823761, 0.038185872137546539, 0.013220682740211487, 0.070657148957252502, -0.12166394293308258, 0.0031564987730234861, -0.087275326251983643, 0.049086160957813263, -0.12027473002672195, -0.013564292341470718, 0.034031759947538376, 0.0031710306648164988, -0.09015655517578125, -0.040020827203989029, 0.017213743180036545, -0.025103991851210594, -0.0067819543182849884, 0.076395392417907715, -0.14441218972206116, -0.095940954983234406, -0.0045537929981946945, -0.13097108900547028, 0.11724746227264404, -0.07799936830997467, -0.036400008946657181, 0.032040726393461227, -0.063023850321769714, 0.013306173495948315, 0.0064246212132275105, -0.12094216048717499, -0.035836145281791687, -0.035270635038614273, -0.093934819102287292, 0.034853983670473099, 0.019376911222934723, -0.062608592212200165, -0.072029761970043182, -0.0084995636716485023, 0.023106683045625687, 0.082301944494247437, 0.089924715459346771, -0.033247247338294983, -0.019395424053072929, -0.053010564297437668, -0.042798604816198349, -0.074753127992153168, -0.033590782433748245, 0.080183826386928558, -0.065736100077629089, -0.10419005900621414, 0.022694423794746399, -0.042809661477804184, 0.029226014390587807, 0.018213152885437012, -0.022227875888347626, -0.0053397952578961849, -0.028175057843327522, 0.02785884402692318, -0.10230054706335068, -0.028342140838503838, -0.12021505832672119, 0.029978020116686821, 0.02071416936814785, -0.029070232063531876, 0.016784345731139183, 0.026164159178733826, -0.075519926846027374, -0.0038017367478460073, -0.02584010548889637, 0.029973197728395462, -0.040279239416122437, 0.037433560937643051, -0.18136239051818848, 0.019417596980929375, 0.019081071019172668, 0.016614643856883049, -0.031945593655109406, 0.052543539553880692, -0.096469461917877197, -0.074933998286724091, 0.029882369562983513, 0.030418138951063156, 0.10674034804105759, 0.021974191069602966, -0.16712045669555664, 0.0066344109363853931, -0.03683021292090416, 0.014442330226302147, -0.024341050535440445, -0.026562582701444626, -0.14260439574718475, -0.11488191783428192, -0.088180996477603912, -0.020789297297596931, 0.0093272030353546143, -0.055239509791135788, -0.0056439507752656937, -0.11656319350004196, -0.16882005333900452, 0.043641164898872375, 0.079488359391689301, 0.034780792891979218, -0.055778760462999344, -0.053852841258049011, 0.06222737580537796, -0.053553439676761627, -0.080859661102294922, 0.091690219938755035, -0.011548556387424469, -0.059438835829496384, 0.13656078279018402, -0.025495883077383041, 0.010433860123157501, -0.012715717777609825, 0.033261548727750778, -0.11144444346427917, 0.068132959306240082, 0.059761404991149902, -0.0070420424453914165, -0.02233431302011013, -0.023220192641019821, 0.019709719344973564, 0.081098251044750214, -0.04179726168513298, -0.021181108430027962, 0.031836144626140594, 0.0011795575264841318, -0.016612263396382332, -0.034937478601932526, -0.094564624130725861, -0.034001480787992477, -0.027813376858830452, -0.056662201881408691, -0.10507046431303024, 0.022548530250787735, -0.04806266725063324, -0.07995421439409256, 0.053553737699985504, -0.083116285502910614, -0.1181635707616806, 0.01582164503633976, -0.14382053911685944, 0.048656977713108063, -0.030509551987051964, -0.016163749620318413, -0.053299717605113983, -0.032430380582809448, -0.00021509024372790009, -0.04347291961312294, -0.10863169282674789, -0.047977320849895477, -0.050157714635133743, 0.059108734130859375, -0.019178222864866257, -0.035264831036329269, -0.039221372455358505, 0.016190426424145699, 0.0052594542503356934, -0.073699384927749634, 0.0036186724901199341, -0.039065215736627579, -0.016420533880591393, -0.063732683658599854, -0.017310256138443947, 0.019682552665472031, 0.018622681498527527, -0.073009714484214783, -0.028211714699864388, -0.022210907191038132, -0.0055437628179788589, -0.063394658267498016, -0.04503747820854187, 0.027580179274082184, -0.03510679304599762, 0.056794703006744385, -0.089849188923835754, 0.049422744661569595, 0.030505353584885597, -0.05594141036272049, -0.056888949126005173, 0.030473005026578903, 0.0022110245190560818, -0.054372530430555344, -0.063627041876316071, 0.059818785637617111, 0.003699909895658493, -0.054342642426490784, -0.021261954680085182, -0.054725117981433868, -0.023157285526394844, 0.047788724303245544, 0.02097807265818119, 0.024529231712222099, -0.11490438133478165, -0.051286004483699799, -0.087479308247566223, 0.036254975944757462, 0.0015069694491103292, 0.053945012390613556, -0.065338708460330963, -0.0092735830694437027, -0.067951008677482605, 0.017585473135113716, 0.05116846039891243, -0.020567202940583229, -0.023860692977905273, -0.027850374579429626, -0.042777188122272491, -0.041430901736021042, 0.052590265870094299, -0.064551979303359985, -0.021727370098233223, -0.028189092874526978, -0.09108387678861618, -0.059082187712192535, -0.021490940824151039, -0.03200170025229454, -0.12368288636207581, 0.047987069934606552, -0.040825054049491882, -0.021995926275849342, -0.05938604474067688, -0.18631957471370697, -0.12835712730884552, -0.016970811411738396, 0.019172649830579758, 0.028597515076398849, -0.033813696354627609, -0.13072700798511505, 0.0089710867032408714, 0.042932949960231781, 0.022414060309529305, -0.093233667314052582, 0.0021942374296486378, -0.15113373100757599, -0.12205687910318375, 0.0068486914969980717, -0.073677323758602142, 0.0090074576437473297, 0.023018646985292435, -0.098800450563430786, -0.11445221304893494, 0.018561143428087234, 0.020754368975758553, -0.018655955791473389, -0.082823894917964935, -0.099674761295318604, -0.1345733106136322, -0.0081854648888111115, -0.024464115500450134, -0.044636443257331848, -0.05001724511384964, -0.050397694110870361, -0.17099359631538391, -0.040566947311162949, 0.1042013019323349, -0.071073681116104126, 0.0030233666766434908, -0.064611323177814484, -0.12065095454454422, 0.027534415945410728, -0.028772203251719475, 0.01436639204621315, 0.15698666870594025, -0.092945173382759094, -0.17066191136837006, 0.0080784829333424568, 0.11164026707410812, -0.064473047852516174, 0.099792778491973877, -0.13566993176937103, -0.12405210733413696, -0.011409206315875053, 0.049295429140329361, -0.054679211229085922, 0.096416257321834564, -0.063756152987480164, -0.19539725780487061, -0.070310033857822418, -0.0053326133638620377, 0.0022988226264715195, 0.13008967041969299, -0.053542871028184891, -0.20282331109046936, 
  -0.16760741174221039, 0.033798933029174805, 0.033194445073604584, 0.083398729562759399, -0.11060057580471039, 0.02220199815928936, -0.094275936484336853, 0.053783994168043137, 0.046788480132818222, 0.088246040046215057, -0.087265618145465851, 0.028507573530077934, -0.042150456458330154, -0.022838704288005829, 0.10585055500268936, -0.021039873361587524, -0.13133947551250458, 0.0035010077990591526, -0.067140147089958191, -0.048380013555288315, 0.11218375712633133, 0.080351069569587708, 0.0080677326768636703, 0.045472346246242523, -0.097657874226570129, 0.018154509365558624, 0.069689400494098663, 0.080604933202266693, -0.058665409684181213, 0.036601714789867401, -0.0090451044961810112, 0.011818514205515385, -0.015235412865877151, 0.1299172043800354, 0.017911704257130623, 0.032672561705112457, -0.082682207226753235, 0.067078106105327606, 0.083468683063983917, 0.05321107804775238, -0.046714853495359421, 0.06568443775177002, 0.02241051010787487, -0.081797771155834198, 0.026296664029359818, 0.11379659175872803, -0.080786071717739105, -0.017696607857942581, -0.002588990842923522, 0.026143619790673256, 0.023418046534061432, 0.049947980791330338, -0.039062988013029099, 0.025308161973953247, -0.093602113425731659, -0.018168548122048378, -0.016830174252390862, 0.11053908616304398, -0.040932372212409973, 0.046879827976226807, -0.069951988756656647, 0.059957608580589294, -0.022130388766527176, 0.02440531924366951, -0.00219111074693501, 0.053872421383857727, -0.0749034583568573, -0.057261351495981216, 0.027243638411164284, 0.12472234666347504, 0.0032836718019098043, 0.058833826333284378, -0.061153855174779892, 0.044057399034500122, 0.065971337258815765, 0.14437977969646454, -0.0060995416715741158, -0.0030015986412763596, 0.018455181270837784, 0.02277543768286705, -0.020410139113664627, 0.018222251906991005, -0.06830500066280365, -0.06862342357635498, 0.018968688324093819, -0.0007651052437722683, 0.10944554954767227, 0.073026478290557861, -0.059289377182722092, -0.025319943204522133, 0.029263030737638474, -0.001437656581401825, 0.041165303438901901, 0.040669258683919907, 0.022877132520079613, -0.095779798924922943, 0.098097190260887146, 0.04635310173034668, -0.0075301160104572773, 0.037013832479715347, -0.017024967819452286, -0.12717588245868683, 0.040758527815341949, 0.044917542487382889, 0.010777827352285385, -0.077264390885829926, 0.0019167630234733224, -0.12316857278347015, 0.10027974098920822, -0.08641999214887619, 0.067142292857170105, -0.078852348029613495, 0.10809436440467834, -0.067485518753528595, -0.038758255541324615, -0.04809599369764328, 0.017538236454129219, -0.054644320160150528, 0.12634919583797455, -0.19416271150112152, -0.00068670074688270688, 0.033434506505727768, -0.029807429760694504, 0.02964428998529911, 0.063562482595443726, -0.11279819160699844, -0.052147075533866882, -0.0086262868717312813, -0.13742107152938843, 0.037696808576583862, -0.014572206884622574, -0.15949143469333649, 0.01636986993253231, -0.085609108209609985, -0.0078026312403380871, -0.072204485535621643, 0.081690274178981781, -0.11416083574295044, 0.03776777908205986, 0.0055842227302491665, -0.045957490801811218, -0.088193833827972412, 0.036228910088539124, -0.037057586014270782, 0.020134899765253067, -0.016566939651966095, -0.084551602602005005, -0.038570713251829147, -0.053858004510402679, -0.043644636869430542, 0.017741817981004715, 0.058721400797367096, -0.024791339412331581, -0.036102741956710815, -0.10124590992927551, -0.047914993017911911, -0.0080014485865831375, 0.031848672777414322, -0.012688727118074894, -0.087369069457054138, -0.013038640841841698, -0.0143222501501441, 0.039407342672348022, -0.047636900097131729, 0.019307957962155342, -0.029304612427949905, -0.10158723592758179, -0.0018853361252695322, 0.015948690474033356, -0.075583063066005707, -0.032864805310964584, -0.09736141562461853, -0.058232367038726807, 0.040830720216035843, 0.017601314932107925, -0.098352089524269104, -0.0031942571513354778, 0.042102985084056854, -0.12033133953809738, -0.069018572568893433, -0.10934741795063019, 0.018704472109675407, -0.16332080960273743, 0.066192395985126495, -0.082694873213768005, 0.039420276880264282, -0.076471865177154541, 0.010662050917744637, -0.13850586116313934, 0.018385197967290878, -0.076772764325141907, 0.080202139914035797, -0.14430828392505646, 0.022119726985692978, -0.077319249510765076, 0.085212722420692444, -0.076902963221073151, 0.0029861896764487028, 0.0031341696158051491, 0.081208884716033936, -0.15598362684249878, 0.090683251619338989, 0.04483916237950325, 0.062961339950561523, -0.043896481394767761, -0.0065088896080851555, -0.020213218405842781, 0.00028103240765631199, -0.045842945575714111, 0.027390038594603539, -0.070692762732505798, -0.04184325784444809, -0.036969490349292755, 0.078175812959671021, -0.043666116893291473, -0.086389921605587006, -0.016342444345355034, -0.010889776051044464, -0.011816628277301788, 0.029529128223657608, -0.035042237490415573, -0.071831628680229187, -0.10647094994783401, -0.059067100286483765, -0.11995171010494232, 0.052116956561803818, 0.026960603892803192, 0.036844775080680847, -0.028338572010397911, -0.1489960104227066, -0.017246745526790619, 0.050417918711900711, -0.020125409588217735, 0.044467631727457047, -0.11847451329231262, -0.1085355281829834, -0.058976508677005768, 0.038636356592178345, -0.012180185876786709, -0.089190118014812469, -0.019503148272633553, -0.12929624319076538, -0.047688178718090057, 0.11734586954116821, -0.020624522119760513, -0.080483637750148773, -0.14396233856678009, -0.17647157609462738, -0.11205559968948364, 0.1201760321855545, 0.0062249377369880676, 0.051187753677368164, -0.0028398456051945686, -0.18474701046943665, 0.011445769108831882, 0.0035333787091076374, -0.0031465895008295774, 0.033915288746356964, -0.0013316906988620758, -0.14453329145908356, -0.069197893142700195, -0.043304290622472763, 0.065885670483112335, 0.033527649939060211, -0.06706228107213974, -0.21891719102859497, 0.0046089626848697662, -0.022819414734840393, -0.012521666474640369, -0.018331555649638176, -0.082768328487873077, -0.061625365167856216, -0.0061162533238530159, 0.090723752975463867, 0.038748793303966522, 0.11444102972745895, 0.013438339345157146, -0.05834970623254776, 0.080676466226577759, 0.016478154808282852, -0.03921113908290863, 0.16129633784294128, 0.060980077832937241, -0.01423556637018919, -0.055097218602895737, -0.056552108377218246, 0.095186352729797363, 0.066909164190292358, -0.032779701054096222, -0.14869913458824158, -0.091967649757862091, 0.011127054691314697, 0.14351889491081238, 0.11056987196207047, 0.061623804271221161, -0.083396486937999725, -0.061485957354307175, 0.0022677159868180752, 0.11509181559085846, 0.01759638637304306, 0.0013992560561746359, -0.062783330678939819, -0.064464963972568512, -0.087073519825935364, 0.14155721664428711, 0.0090907849371433258, 0.013975508511066437, -0.088681265711784363, -0.035482697188854218, -0.066507771611213684, 0.091263763606548309, -0.032393347471952438, 0.019333641976118088, -0.090873204171657562, -0.047553978860378265, -0.044282343238592148, -0.024596195667982101, 0.011463264003396034, 0.062894284725189209, -0.028125964105129242, -0.13314111530780792, 0.10076672583818436, 0.06161176785826683, 0.013960566371679306, -0.085591129958629608, -0.056229732930660248, -0.047703683376312256, 0.10540087521076202, -0.013965297490358353, 0.010430897586047649, 0.043129898607730865, 0.032058559358119965, -0.046811871230602264, 0.033153235912322998, -0.0010900070192292333, 0.0052250688895583153, -0.017411632463335991, 0.022886374965310097, 0.029374225065112114, 0.022720497101545334, 0.029640628024935722, 0.14847244322299957, 0.026739975437521935, 0.038896527141332626, -0.026591518893837929, 0.05544574186205864, 0.0016155275516211987, 0.11495352536439896, -0.033747307956218719, -0.0041272384114563465, -0.0077314358204603195, 0.035922341048717499, 0.052231226116418839, 0.11696881055831909, -0.1218976229429245, 0.054100710898637772, 0.010957993566989899, 0.0023155822418630123, -0.06095987930893898, 0.05895967036485672, -0.0057934555225074291, 0.062976479530334473, -0.0042534465901553631, 0.035834133625030518, -0.027917914092540741, 0.07332853227853775, -0.042822673916816711, -0.027968417853116989, -0.026545308530330658, -0.022658936679363251, 0.05741482600569725, -0.049623053520917892, -0.057807296514511108, -0.037870004773139954, -0.058284271508455276, 0.012764100916683674, 0.023491412401199341, -0.019417021423578262, -0.015562688931822777, -0.070928119122982025, -0.075651258230209351, 0.098692558705806732, 0.13299299776554108, 0.065928146243095398, -0.03591407835483551, -0.062661409378051758, -0.086050748825073242, 0.044643867760896683, 0.0052429372444748878, -0.016661910340189934, -0.024091882631182671, -0.021682189777493477, -0.029462959617376328, 0.13706544041633606, 0.11690504103899002, 0.058765992522239685, -0.054128598421812057, 0.066973090171813965, -0.042766597121953964, 0.14705255627632141, 0.12269777059555054, -0.039254546165466309, -0.08849189430475235, -0.025018054991960526, -0.14395220577716827, 0.11952003091573715, 0.13213092088699341, -0.048840213567018509, 0.031519658863544464, -0.075001344084739685, -0.1829289048910141, 0.096473060548305511, -0.0026342163328081369, 0.066119834780693054, -0.015406315214931965, 0.0042960601858794689, -0.066704943776130676, 0.025681756436824799, 0.075709894299507141, 0.10160546004772186, -0.014504484832286835, -0.02124408632516861, -0.11882312595844269, 0.090298742055892944, 0.050874717533588409, -0.016488654538989067, -0.05073113739490509, 0.049721680581569672, -0.16223210096359253, 0.050231721252202988, -0.0032448549754917622, -0.0090438313782215118, -0.087222643196582794, 0.054862529039382935, -0.14662849903106689, 0.042513646185398102, -0.03768886998295784, 0.12973545491695404, -0.025195261463522911, 0.1686413586139679, -0.0030531107913702726, 0.040922995656728745, 0.07261272519826889, 0.052120711654424667, 0.035484079271554947, 0.091132424771785736, -0.11737110465764999, -0.029582381248474121, 0.11558824777603149, -0.029557632282376289, 0.022620877251029015, 0.18138144910335541, -0.14195108413696289, -0.0042664753273129463, -0.031424257904291153, 0.068872585892677307, 0.001788437832146883, 0.094227299094200134, -0.065701916813850403, -0.036876596510410309, 0.087257511913776398, 0.011303923092782497, 0.028567688539624214, 0.027719626203179359, -0.10129828751087189, -0.035356286913156509, -0.029050761833786964, 0.018770864233374596, -0.048845037817955017, 0.0052697579376399517, -0.12223669141530991, 0.0081256087869405746, -0.013593034818768501, 0.042384982109069824, -0.074104964733123779, -0.02913239598274231, -0.16784818470478058, 0.034095674753189087, 0.026606213301420212, -0.027517588809132576, -0.063514292240142822, 0.045505452901124954, -0.22555051743984222, 0.010252135805785656, 0.044274542480707169, 0.010631555691361427, -0.051679514348506927, 0.058373775333166122, -0.31193867325782776, 0.048348195850849152, -0.057346202433109283, 0.10382147878408432, 0.051238905638456345, 0.126455157995224, -0.1225455030798912, -0.0010981099912896752, -0.09700358659029007, -0.017756201326847076, 0.034638311713933945, 0.14264459908008575, -0.11574379354715347, -0.054661259055137634, -0.039188183844089508, 0.022121630609035492, 0.0021722856909036636, 0.050327017903327942, -0.1237795352935791, -0.019957991316914558, -0.13322983682155609, -0.0035785860382020473, -0.041232328861951828, 0.08100532740354538, -0.14689305424690247, -0.0066082342527806759, -0.11323687434196472, -0.016611244529485703, -0.017020838335156441, 0.07682105153799057, -0.1844734400510788, 0.12710930407047272, -0.094858482480049133, 0.053774628788232803, -0.068413883447647095, 0.01517950277775526, -0.17501175403594971, 0.11723548173904419, -0.087685778737068176, 0.047132477164268494, -0.093121550977230072, -0.03995407372713089, -0.20926563441753387, 0.0014634598046541214, -0.13308873772621155, -0.015161370858550072, -0.091498173773288727, 0.053847506642341614, -0.19499179720878601, -0.032993033528327942, -0.015522430650889874, 0.058578521013259888, 0.032330378890037537, 0.10398636013269424, -0.228070929646492, 0.01502509880810976, -0.08909732848405838, 0.040703132748603821, -0.023505976423621178, 0.1258963942527771, -0.22995814681053162, -0.0079522933810949326, -0.15871605277061462, -0.086354091763496399, -0.011906190775334835, 0.031434483826160431, -0.14193932712078094, 0.00099791621323674917, -0.16058802604675293, -0.019495727494359016, 0.036122120916843414, -0.03291599452495575, -0.27401310205459595, -0.011261233128607273, -0.076051011681556702, -0.058440148830413818, -0.056464403867721558, -0.016436971724033356, -0.16483519971370697, -0.049028828740119934, -0.044425018131732941, -0.0065705794841051102, -0.10144393891096115, -0.0090564005076885223, -0.12061537802219391, -0.11824256181716919, -0.12159950286149979, 0.034497130662202835, -0.0067128455266356468, -0.077034033834934235, -0.080573730170726776, -0.096365951001644135, -0.11845617741346359, -0.081930898129940033, -0.079829305410385132, 0.0068372185342013836, -0.071493521332740784, -0.036009542644023895, -0.071182802319526672, 0.053162414580583572, -0.010476017370820045, 0.016116861253976822, -0.083234086632728577, -0.0026416638866066933, -0.1132582500576973, -0.11139240115880966, 0.063809283077716827, -0.053022906184196472, -0.053133979439735413, -0.16794249415397644, -0.057478234171867371, -0.057708501815795898, 0.044317483901977539, -0.049918413162231445, -0.076560109853744507, -0.085078366100788116, -0.030291693285107613, -0.11422742903232574, 0.019237503409385681, 0.043115809559822083, -0.013733726926147938, -0.095164641737937927, 0.001194534357637167, -0.11225596815347672, 0.022964484989643097, -0.074046880006790161, -0.12735021114349365, -0.11990873515605927, -0.03480132669210434, -0.17138189077377319, -0.037104364484548569, -0.032878395169973373, -0.05170416459441185, -0.034244030714035034, -0.056180577725172043, -0.11167196929454803, -0.014450011774897575, -0.083934865891933441, -0.043805994093418121, -0.083773642778396606, -0.028837559744715691, -0.12016609311103821, -0.059298101812601089, -0.018317626789212227, -0.12085140496492386, -0.019115159288048744, -0.1207246258854866, -0.06372426450252533, -0.036474552005529404, 0.021677395328879356, -0.11222810298204422, -0.08985774964094162, -0.0090571977198123932, -0.10941575467586517, -0.021280268207192421, 0.0082232896238565445, -0.13892179727554321, 0.019212635233998299, -0.02516549825668335, -0.06490730494260788, 0.06180012971162796, 0.031183477491140366, -0.030090728774666786, 0.038567285984754562, -0.12023916840553284, -0.12077661603689194, -0.0043045789934694767, 0.050325814634561539, -0.11670733988285065, -0.042313870042562485, -0.049353398382663727, -0.13438452780246735, 0.0052130282856523991, -0.0055951816029846668, -0.031103895977139473, 0.0036234469152987003, -0.018491053953766823, -0.18310017883777618, -0.037218175828456879, -0.041191011667251587, -0.081204548478126526, 0.01728709414601326, -0.050587348639965057, -0.17401020228862762, -0.085307471454143524, -0.053497787564992905, -0.094854667782783508, -0.073123276233673096, -0.11273331195116043, -0.12333269417285919, -0.081156551837921143, 0.048560433089733124, 0.021739259362220764, -0.0075855874456465244, -0.011765754781663418, -0.12647777795791626, -0.057632874697446823, 0.040342554450035095, 0.020797612145543098, -0.085597850382328033, -0.052087347954511642, -0.10637840628623962, -0.082702644169330597, 0.0953822061419487, -0.031671669334173203, 0.055509831756353378, -0.026429193094372749, -0.059800788760185242, -0.084313355386257172, 0.018426412716507912, -0.0063155018724501133, 0.036403462290763855, -0.0093790348619222641, -0.10257281363010406, -0.070078939199447632, 0.022254744544625282, -0.10883904993534088, -0.063272535800933838, 0.050526361912488937, -0.035485986620187759, -0.08755667507648468, 0.074325844645500183, -0.069934546947479248, -0.0052160322666168213, -0.0014057370135560632, -0.098805248737335205, -0.075657494366168976, 0.030752277001738548, -0.1045662984251976, 0.061247274279594421, -0.068627499043941498, -0.19331599771976471, 0.044036358594894409, 0.086390018463134766, 0.13138012588024139, 0.090463355183601379, 0.039191644638776779, -0.12128843367099762, 0.02238139882683754, 0.0083073033019900322, 0.079563148319721222, 0.021364673972129822, -0.044877577573060989, -0.077319607138633728, 0.011268483474850655, 0.032024987041950226, 0.11387350410223007, 0.094992645084857941, -0.040690824389457703, -0.16922728717327118, 0.11416430771350861, -0.012829823419451714, 0.10393739491701126, -0.025514842942357063, -0.010393991135060787, -0.081925831735134125, 0.0011232094839215279, -0.049810871481895447, -0.040094748139381409, 0.043048147112131119, 0.032214134931564331, -0.10420989245176315, 0.044048577547073364, 0.019795000553131104, -0.0037900058086961508, 0.082675963640213013, 0.034524425864219666, -0.028795298188924789, -0.01426090020686388, -0.021437738090753555, 0.036966033279895782, 0.06221303716301918, 0.04870249330997467, -0.048276443034410477, 0.089601978659629822, 0.010319567285478115, 0.044686868786811829, 0.10840430110692978, -0.046119000762701035, -0.0667620450258255, 0.0048888367600739002, 0.070723950862884521, 0.02201358787715435, -0.015737650915980339, -0.038039818406105042, -0.10986607521772385, 0.050186749547719955, 0.052651632577180862, -0.03649485856294632, 0.079647690057754517, -0.076233193278312683, 0.0095152240246534348, 0.019250767305493355, 0.030625851824879646, -0.056491374969482422, 0.089345932006835938, -0.037844881415367126, -0.12054431438446045, -0.010709204711019993, -0.03155030682682991, 0.021827556192874908, 0.071201324462890625, -0.084474563598632812, -0.15796488523483276, -0.020768150687217712, -0.058817707002162933, -0.01576702855527401, 0.034315142780542374, 0.018223563209176064, -0.1459210216999054, -0.099469058215618134, 0.033704336732625961, 0.060669809579849243, -0.018117912113666534, 0.04709949716925621, -0.14750659465789795, 0.017867714166641235, 0.04532356932759285, 0.033949766308069229, -0.074364498257637024, -0.024524679407477379, -0.10532176494598389, -0.012585395015776157, 0.071010082960128784, 0.045008227229118347, -0.11375020444393158, -0.01292060874402523, -0.03405408188700676, -0.039908558130264282, 0.0307468231767416, 0.074038811028003693, -0.062793225049972534, 0.042173620313405991, -0.034469366073608398, -0.089772343635559082, -0.0042201681062579155, 0.050743870437145233, -0.041070021688938141, 0.015086845494806767, -0.038609329611063004, -0.018208242952823639, 0.044462811201810837, 0.049873482435941696, -0.097290277481079102, 0.049341484904289246, -0.069959230720996857, 0.040838155895471573, 0.085699006915092468, -0.038833241909742355, -0.099353738129138947, 0.13901092112064362, 0.0036001806147396564, 0.013868379406630993, 0.054300099611282349, 0.027511589229106903, -0.10446722805500031, 0.054319530725479126, -0.13572314381599426, 0.071326963603496552, -0.032045643776655197, 0.01395989116281271, -0.043807186186313629, 0.10085646063089371, 0.0064012007787823677, -0.069500401616096497, -0.026144718751311302, -0.076811559498310089, -0.076351471245288849, 0.0869879350066185, -0.049475517123937607, -0.021177250891923904, 0.028739966452121735, 0.010941032320261002, -0.05000859871506691, 0.027946712449193001, 0.011664739809930325, 0.02496236190199852, -0.053404733538627625, -0.02690943144261837, -0.10062269121408463, 0.070813283324241638, -0.018534516915678978, -0.013289819471538067, 0.039775766432285309, -0.077163457870483398, -0.046447321772575378, 0.070026502013206482, 0.01070268452167511, 0.0076761273667216301, 0.039836384356021881, -0.054172929376363754, -0.076710052788257599, 0.15469352900981903, 0.045822177082300186, 0.034390490502119064, 0.045383088290691376, 0.062963470816612244, 0.04476156085729599, 0.14633485674858093, -0.016919070854783058, 0.025613777339458466, 0.07586243748664856, 0.06996358186006546, -0.0087393606081604958, 0.045224398374557495, 0.09660426527261734, 0.027277082204818726, 0.052640851587057114, 0.025853041559457779, 0.016845570877194405, 0.07046760618686676, 0.085341952741146088, 
