/* Generated by Edge Impulse
 *
 * Permission is hereby granted, free of charge, to any person obtaining a copy
 * of this software and associated documentation files (the "Software"), to deal
 * in the Software without restriction, including without limitation the rights
 * to use, copy, modify, merge, publish, distribute, sublicense, and/or sell
 * copies of the Software, and to permit persons to whom the Software is
 * furnished to do so, subject to the following conditions:
 *
 * The above copyright notice and this permission notice shall be included in
 * all copies or substantial portions of the Software.
 *
 * THE SOFTWARE IS PROVIDED "AS IS", WITHOUT WARRANTY OF ANY KIND, EXPRESS OR
 * IMPLIED, INCLUDING BUT NOT LIMITED TO THE WARRANTIES OF MERCHANTABILITY,
 * FITNESS FOR A PARTICULAR PURPOSE AND NONINFRINGEMENT. IN NO EVENT SHALL THE
 * AUTHORS OR COPYRIGHT HOLDERS BE LIABLE FOR ANY CLAIM, DAMAGES OR OTHER
 * LIABILITY, WHETHER IN AN ACTION OF CONTRACT, TORT OR OTHERWISE, ARISING FROM,
 * OUT OF OR IN CONNECTION WITH THE SOFTWARE OR THE USE OR OTHER DEALINGS IN THE
 * SOFTWARE.
 */
// Generated on: 09.12.2022 19:17:07

#include <stdio.h>
#include <stdlib.h>
#include "edge-impulse-sdk/tensorflow/lite/c/builtin_op_data.h"
#include "edge-impulse-sdk/tensorflow/lite/c/common.h"
#include "edge-impulse-sdk/tensorflow/lite/micro/micro_mutable_op_resolver.h"
#include "edge-impulse-sdk/porting/ei_classifier_porting.h"

#if EI_CLASSIFIER_PRINT_STATE
#if defined(__cplusplus) && EI_C_LINKAGE == 1
extern "C" {
    extern void ei_printf(const char *format, ...);
}
#else
extern void ei_printf(const char *format, ...);
#endif
#endif

#if defined __GNUC__
#define ALIGN(X) __attribute__((aligned(X)))
#elif defined _MSC_VER
#define ALIGN(X) __declspec(align(X))
#elif defined __TASKING__
#define ALIGN(X) __align(X)
#endif

#ifndef EI_MAX_SCRATCH_BUFFER_COUNT
#define EI_MAX_SCRATCH_BUFFER_COUNT 4
#endif // EI_MAX_SCRATCH_BUFFER_COUNT

#ifndef EI_MAX_OVERFLOW_BUFFER_COUNT
#define EI_MAX_OVERFLOW_BUFFER_COUNT 10
#endif // EI_MAX_OVERFLOW_BUFFER_COUNT

using namespace tflite;
using namespace tflite::ops;
using namespace tflite::ops::micro;

namespace {

constexpr int kTensorArenaSize = 4112;

#if defined(EI_CLASSIFIER_ALLOCATION_STATIC)
uint8_t tensor_arena[kTensorArenaSize] ALIGN(16);
#elif defined(EI_CLASSIFIER_ALLOCATION_STATIC_HIMAX)
#pragma Bss(".tensor_arena")
uint8_t tensor_arena[kTensorArenaSize] ALIGN(16);
#pragma Bss()
#elif defined(EI_CLASSIFIER_ALLOCATION_STATIC_HIMAX_GNU)
uint8_t tensor_arena[kTensorArenaSize] ALIGN(16) __attribute__((section(".tensor_arena")));
#else
#define EI_CLASSIFIER_ALLOCATION_HEAP 1
uint8_t* tensor_arena = NULL;
#endif

static uint8_t* tensor_boundary;
static uint8_t* current_location;

template <int SZ, class T> struct TfArray {
  int sz; T elem[SZ];
};
enum used_operators_e {
  OP_FULLY_CONNECTED, OP_SOFTMAX,  OP_LAST
};
struct TensorInfo_t { // subset of TfLiteTensor used for initialization from constant memory
  TfLiteAllocationType allocation_type;
  void* data;
  TfLiteIntArray* dims;
  size_t bytes;
};
struct NodeInfo_t { // subset of TfLiteNode used for initialization from constant memory
  struct TfLiteIntArray* inputs;
  struct TfLiteIntArray* outputs;
  void* builtin_data;
  used_operators_e used_op_index;
};

TfLiteContext ctx{};
TfLiteTensor tflTensors[11];
TfLiteEvalTensor tflEvalTensors[11];
TfLiteRegistration registrations[OP_LAST];
TfLiteNode tflNodes[4];

const TfArray<2, int> tensor_dimension0 = { 2, { 1,900 } };
const ALIGN(16) float tensor_data1[5] = { 0.4499981701374054, -0.57584607601165771, -0.05264732614159584, 0.11444377899169922, 0.13203848898410797, };
const TfArray<1, int> tensor_dimension1 = { 1, { 5 } };
const ALIGN(16) float tensor_data2[40] = { -0.13278713822364807, 0.11884941905736923, -0.19542866945266724, 0.091962538659572601, -0.059190809726715088, 0.28244683146476746, 0.1703190803527832, -0.071005046367645264, 0.10347980260848999, -0.29922747611999512, -0.092601299285888672, -0.19163914024829865, -0.11894860118627548, -0.10842683166265488, -0.20217952132225037, -0.27080798149108887, -0.046420987695455551, 0.16631938517093658, -0.038705740123987198, 0.14090311527252197, 0.22844570875167847, -0.22138892114162445, -0.15224997699260712, -0.12952388823032379, -0.014592922292649746, -0.19512365758419037, -0.28377017378807068, -0.13438600301742554, -0.024886257946491241, 0.37910550832748413, 0.23849360644817352, -0.0052980738691985607, 0.047555871307849884, 0.31464734673500061, 0.034855686128139496, -0.038478769361972809, -0.19747735559940338, 0.3567446768283844, 0.42668813467025757, 0.025862056761980057, };
const TfArray<1, int> tensor_dimension2 = { 1, { 40 } };
const ALIGN(16) float tensor_data3[80] = { -0.012742398306727409, -0.31917950510978699, -0.079432196915149689, 0.023339247331023216, -0.1956445574760437, -0.4223807156085968, 0.022639499977231026, -0.015878239646553993, -0.13591253757476807, -0.35210081934928894, 0.02072572149336338, -0.2161339670419693, -0.21164911985397339, -0.079887382686138153, -0.11208711564540863, -0.22192841768264771, -0.37883248925209045, -0.31425771117210388, -0.091981709003448486, -0.30105721950531006, -0.23732657730579376, -0.25468394160270691, -0.059435773640871048, -0.33546480536460876, -0.29722857475280762, 0.008861432783305645, -0.022893749177455902, -0.013709187507629395, -0.29572808742523193, 0.030895773321390152, -0.099592655897140503, -0.16522374749183655, -0.34955441951751709, -0.096576780080795288, -0.28627076745033264, -0.00021473207743838429, -0.26050987839698792, -0.23471654951572418, -0.26786190271377563, -0.37984293699264526, -0.2599945068359375, 0.090855754911899567, -0.23474413156509399, -0.25830894708633423, -0.25687128305435181, -0.13016438484191895, -0.063826128840446472, -0.096004828810691833, -0.20790551602840424, -0.23020577430725098, -0.22614830732345581, -0.094476908445358276, -0.16387878358364105, -0.024400979280471802, -0.15828171372413635, -0.27591049671173096, -0.11997781693935394, -0.14532028138637543, -0.035037677735090256, -0.31532719731330872, 0.065069280564785004, -0.073704294860363007, -0.34190943837165833, -0.22806264460086823, -0.24639433622360229, -0.19003282487392426, -0.1437455415725708, -0.23631499707698822, -0.30784356594085693, -0.10465210676193237, -0.24560357630252838, -0.2054530531167984, -0.01572134904563427, -0.20083731412887573, -0.29985174536705017, -0.30264025926589966, -0.092721924185752869, -0.20883773267269135, -0.31393435597419739, -0.19896061718463898, };
const TfArray<1, int> tensor_dimension3 = { 1, { 80 } };
const ALIGN(16) float tensor_data4[80*900] = { 
  -0.080618344247341156, 0.0080012893304228783, -0.05332525447010994, -0.006726664025336504, 0.081182725727558136, 0.086472079157829285, -0.069673612713813782, -0.0013863991480320692, 0.043429158627986908, 0.0040878946892917156, 0.058879729360342026, -0.057030852884054184, -0.049490854144096375, -0.046513814479112625, 0.044039465487003326, 0.045865625143051147, -0.016413044184446335, -0.019694002345204353, -0.0088783223181962967, 0.049154534935951233, 0.076396353542804718, 0.032856062054634094, 0.013181215152144432, -0.014583013951778412, 0.053725320845842361, -0.068052709102630615, 0.012707485817372799, 0.044776350259780884, -0.0096140159294009209, 0.019596613943576813, 0.058647170662879944, 0.083466380834579468, 0.086859196424484253, 0.0054715471342206001, 0.00083421508315950632, 0.0035851227585226297, 0.03778182715177536, -0.010282840579748154, 0.0045898733660578728, 0.031738694757223129, 0.005716108251363039, -0.10855101048946381, -0.033280469477176666, -0.090009085834026337, 0.023718979209661484, 0.06589142233133316, 0.0023442439269274473, -0.10524596273899078, -0.026312505826354027, -0.083156801760196686, -0.0033947541378438473, 0.079271763563156128, -0.024597948417067528, -0.042859237641096115, -0.0044495202600955963, -0.040740154683589935, 0.051428895443677902, 0.10788854956626892, 0.041673239320516586, 0.0068810814991593361, 0.0089045371860265732, -0.014825552701950073, 0.032161425799131393, -0.0039669293910264969, 0.011011124588549137, 0.017769858241081238, 0.04012148454785347, -0.087257005274295807, -0.060209520161151886, 0.058854006230831146, -0.047731652855873108, -0.068060524761676788, 0.081091485917568207, -0.1083168089389801, 0.018816720694303513, -0.060420889407396317, -0.051381982862949371, -0.030441302806138992, 0.10796229541301727, -0.10225450992584229, 0.078213535249233246, 0.066449455916881561, -0.042968425899744034, -0.054829832166433334, 0.08558538556098938, 0.00083793734665960073, -0.039003189653158188, 0.039085466414690018, -0.062122825533151627, 0.0089270556345582008, 0.052029319107532501, -0.09754268079996109, -0.023432686924934387, -0.035201694816350937, -0.095569953322410583, -0.078299164772033691, 0.064070448279380798, -0.016585124656558037, 0.076766312122344971, -0.037480656057596207, -0.056276198476552963, 0.034692879766225815, -0.0012741753598675132, 0.06193949282169342, 0.00280336057767272, -0.0088710086420178413, -0.041763618588447571, 0.015349045395851135, -0.028327791020274162, 0.075161486864089966, 0.0084163593128323555, 0.020941717550158501, -0.077627420425415039, -0.049471337348222733, 0.0043171318247914314, 0.065607927739620209, 0.0041478141210973263, 0.015798375010490417, -0.037131115794181824, -0.02217046357691288, 0.063356988131999969, -0.053189124912023544, 0.01958388090133667, 0.077054038643836975, 0.011253898963332176, 0.06541750580072403, -0.028553340584039688, 0.066297665238380432, 0.044962726533412933, 0.11380083113908768, 0.038153231143951416, -0.012970671989023685, -0.01533246785402298, -0.068360455334186554, -0.0051854825578629971, 0.096978649497032166, -0.032187707722187042, -0.087783969938755035, 0.085456617176532745, 0.030295828357338905, 0.082935497164726257, 0.10766196995973587, -0.070126712322235107, -0.071627549827098846, 0.060289744287729263, 0.065414316952228546, 0.038047336041927338, 0.063807748258113861, -0.01727069728076458, 0.012592477723956108, -0.027436582371592522, 0.04167923703789711, 0.12031399458646774, 0.01982542872428894, -0.12916013598442078, 0.030195793136954308, -0.011857170611619949, -0.017541227862238884, -0.032595075666904449, -0.032803412526845932, -0.11417700350284576, -0.094815149903297424, 0.011155463755130768, 0.054073825478553772, -0.045120358467102051, -0.031096247956156731, -0.0058126142248511314, -0.085276909172534943, -0.054859470576047897, 0.039768777787685394, -0.019473735243082047, -0.0017022161046043038, -0.075457125902175903, -0.10922765731811523, -0.025782389566302299, 0.040193259716033936, 0.085439719259738922, 0.0079111885279417038, -0.11965114623308182, -0.029316337779164314, 0.06218324601650238, 0.037924066185951233, -0.12107045948505402, 0.090922735631465912, -0.10082343965768814, -0.090630382299423218, 0.010785812512040138, -0.05906812846660614, -0.013258408755064011, 0.038794767111539841, -0.077779531478881836, -0.067001238465309143, 0.048440847545862198, -0.042698398232460022, 0.0083373896777629852, 0.027300847694277763, -0.10211955010890961, 0.0067575257271528244, -0.0079241450875997543, -0.040858238935470581, -0.053018480539321899, 0.05745980516076088, -0.004125645849853754, 0.0030895837116986513, 0.065383382141590118, 0.027891207486391068, -0.052494343370199203, 0.040727045387029648, -0.076490573585033417, -0.077634193003177643, -0.039241597056388855, 0.025861227884888649, -0.089264601469039917, 0.059809546917676926, 0.018245747312903404, -0.037530858069658279, -0.023937541991472244, -0.10020225495100021, -0.13266433775424957, -0.042779933661222458, -0.087652824819087982, -0.086442209780216217, 0.07364162802696228, -0.096859574317932129, -0.052250545471906662, -0.018522333353757858, -0.0021327030844986439, -0.11358523368835449, 0.01051479484885931, -0.081756047904491425, -0.021568963304162025, 0.010652394965291023, -0.063877448439598083, -0.017420230433344841, -0.023370832204818726, -0.030578853562474251, -0.067776292562484741, -0.07058696448802948, -0.016968274489045143, -0.064394652843475342, 0.073151908814907074, -0.024905364960432053, -0.073067173361778259, -0.00071481580380350351, -0.04013298824429512, -0.046474937349557877, 0.025293154641985893, -0.065552420914173126, 0.035568371415138245, -0.08283580094575882, -0.0055465381592512131, 0.061387985944747925, 0.092096246778964996, -0.06106940284371376, -0.0036122181918472052, -0.0072485883720219135, 0.011155921965837479, -0.01258065365254879, 0.060523390769958496, -0.10411165654659271, -0.01099629420787096, 0.060310829430818558, -0.029585065320134163, 0.026136485859751701, 0.11267998814582825, 0.022562602534890175, -0.083255507051944733, 0.00028384092729538679, -0.00091421051183715463, 0.033538363873958588, 0.025333806872367859, -6.9002548116259277e-05, -0.13169798254966736, 0.028693811967968941, -0.06540265679359436, 0.025357926264405251, 0.047415159642696381, 0.059056103229522705, -0.15899893641471863, 0.092664636671543121, 0.02051253616809845, 0.0080410167574882507, 0.084519669413566589, -0.048607014119625092, -0.13261117041110992, 0.067437492311000824, -0.046216674149036407, 0.010664783418178558, 0.088748998939990997, -0.088443487882614136, -0.03065066784620285, 0.10913881659507751, -0.055361311882734299, 0.038019437342882156, 0.032030157744884491, 0.011761960573494434, -0.039647664874792099, 0.10219695419073105, -0.0058030448853969574, -0.022952206432819366, 0.043294496834278107, -0.029513770714402199, 0.0085357343778014183, 0.16145047545433044, -0.0094678746536374092, -0.043184567242860794, -0.020675083622336388, 0.009458557702600956, -0.11026734858751297, 0.10701446980237961, 0.002668869448825717, 0.021437373012304306, 0.063668385148048401, 0.010073584504425526, -0.011498924344778061, 0.11564372479915619, 0.072401680052280426, 0.011973831802606583, 0.026202771812677383, -0.06934085488319397, -0.14053446054458618, 0.06768450140953064, -0.053594045341014862, -0.064763717353343964, 0.08499598503112793, 0.043960195034742355, -0.035452820360660553, 0.064412377774715424, 0.017900740727782249, 0.029542647302150726, 0.10138474404811859, -0.035792648792266846, -0.038030106574296951, 0.055546186864376068, 0.04725223034620285, 0.11907220631837845, 0.038352452218532562, -0.028507111594080925, -0.12173918634653091, 0.15041929483413696, -0.011893045157194138, -0.00028329979977570474, -0.0072024897672235966, -0.050206318497657776, -0.070898689329624176, 0.15575794875621796, -0.010060927830636501, 0.066303208470344543, 0.078563041985034943, 0.072082199156284332, -0.053654767572879791, 0.037117291241884232, -0.034961286932229996, 0.01312662661075592, 0.049337912350893021, -0.020682025700807571, -0.14366635680198669, 0.12747941911220551, -0.082916498184204102, 0.10940918326377869, 0.029209394007921219, -0.0015842303400859237, -0.096040867269039154, 0.17203907668590546, -0.010715997777879238, -0.027945782989263535, 0.026875885203480721, 0.049935579299926758, -0.022132167592644691, 0.12089809030294418, -0.021222867071628571, 0.125684455037117, 0.052469745278358459, 0.024299811571836472, 0.013140078634023666, 0.018056388944387436, -0.077361762523651123, -0.0071623418480157852, 0.031951379030942917, -0.07232937216758728, -0.051488805562257767, 0.020075725391507149, -0.03128143772482872, 0.089227296411991119, 0.02201484888792038, 0.057945244014263153, -0.029540922492742538, -0.025618968531489372, 0.077191457152366638, -0.018004024401307106, -0.045874632894992828, -0.10186517238616943, -0.099340826272964478, -0.060303132981061935, -0.039092876017093658, -0.0052043944597244263, 0.055583439767360687, -0.10420059412717819, -0.0658106729388237, -0.1054515615105629, -0.0090577229857444763, 0.10999561101198196, 0.019992349669337273, 0.039601314812898636, -0.09415552020072937, -0.022356735542416573, 0.049171272665262222, 0.11134828627109528, 0.048303823918104172, -0.040964066982269287, -0.088154807686805725, 0.016638748347759247, 0.015650497749447823, 0.073247313499450684, 0.07206445187330246, -0.066852346062660217, -0.068968117237091064, 0.14529934525489807, 0.030000176280736923, 0.062713652849197388, 0.053919412195682526, 0.023820485919713974, -0.0075216693803668022, 0.12123601883649826, 0.0061027230694890022, 0.10027520358562469, 0.038114394992589951, -0.030665859580039978, -0.039546791464090347, 0.10561475157737732, -0.069901995360851288, 0.086565107107162476, -0.014364602975547314, 0.00014689778618048877, -0.014646644704043865, 0.053847391158342361, 0.033307325094938278, 0.12220903486013412, 0.055333789438009262, 0.038669202476739883, -0.012592063285410404, 0.055312864482402802, 0.020946420729160309, 0.098225653171539307, 0.055727105587720871, -0.0058089378289878368, -0.097980916500091553, -0.053801286965608597, -0.027182377874851227, 0.047354135662317276, 0.0058296201750636101, 0.037790663540363312, -0.031024651601910591, -0.013293121010065079, -0.037909477949142456, 0.065298691391944885, -0.027707437053322792, -0.010616922751069069, -0.034664928913116455, 0.068563155829906464, 0.055365201085805893, -0.0098864184692502022, 0.071775458753108978, 0.067717216908931732, -0.067179210484027863, -0.02333931066095829, 0.093902848660945892, 0.098877482116222382, 0.0071978806518018246, -0.010084226727485657, -0.13914766907691956, -0.020823456346988678, 0.071170933544635773, 0.029833033680915833, 0.0397040955722332, 0.090596958994865417, -0.10994937270879745, -0.011400134302675724, 0.0045927609317004681, -0.027185076847672462, 0.072550050914287567, 0.029821928590536118, -0.06389317661523819, 0.041565254330635071, -0.00099009089171886444, 0.00048584275646135211, 0.0072038196958601475, -0.070377372205257416, -0.09025949239730835, -0.009232737123966217, 0.0034993414301425219, -0.052478581666946411, 0.023933496326208115, -0.10143526643514633, -0.028796210885047913, 0.11637357622385025, -0.05080578476190567, -0.032469518482685089, -0.038342393934726715, 0.0080487625673413277, -0.035800114274024963, 0.052253857254981995, 0.045150518417358398, -0.068183772265911102, 0.081724323332309723, 0.0012312204344198108, -0.041164088994264603, -0.010624325834214687, -0.084376424551010132, -0.034064453095197678, 0.070185288786888123, -0.00079107185592874885, -0.099051393568515778, 0.030631478875875473, -0.068547390401363373, -0.049282580614089966, -0.060121893882751465, -0.053015921264886856, -0.09073881059885025, 0.11693708598613739, -0.048191271722316742, 0.05203888937830925, 0.027119481936097145, -0.015738572925329208, -0.094980865716934204, 0.03503548726439476, -0.017891054973006248, 0.060423683375120163, 0.010567337274551392, 0.037637777626514435, -0.040928356349468231, 0.069114677608013153, 0.014867573976516724, 0.059273902326822281, 0.01434535626322031, 0.019625650718808174, -0.083318479359149933, 0.10250330716371536, -0.0056060594506561756, 0.030867924913764, -0.029347226023674011, -0.0089021762832999229, -0.072119481861591339, 0.16937059164047241, -0.065802291035652161, -0.0094894124194979668, 0.095410555601119995, 0.017533710226416588, 0.011466226540505886, 0.11452604085206985, -0.096819043159484863, 0.03934825211763382, -0.012713281437754631, 0.062969081103801727, -0.095509074628353119, 0.072537943720817566, -0.086646042764186859, 0.042078718543052673, 0.065308831632137299, 0.0002952275681309402, -0.067090556025505066, 0.17243155837059021, -0.068348780274391174, -0.0069342623464763165, 0.099149875342845917, 0.079064644873142242, -0.017373941838741302, 0.039088819175958633, -0.0054366346448659897, 1.2139160389779136e-05, 0.095232971012592316, -0.018408158794045448, -0.046680469065904617, 0.056444622576236725, 0.015550436452031136, 0.096573866903781891, 0.046991623938083649, 0.035744179040193558, 0.0022497489117085934, -0.0095086824148893356, 0.010465252213180065, 0.054105911403894424, 0.11583340913057327, -0.013648891821503639, 0.010289167985320091, 0.067875228822231293, -0.048868086189031601, -0.0047355657443404198, 0.1246151328086853, 0.05756421759724617, -0.078040026128292084, 0.047985311597585678, 0.054219983518123627, -0.050694137811660767, 0.057665415108203888, -0.025725442916154861, 0.0017445239936932921, 0.085198864340782166, -0.10463356226682663, 0.018067555502057076, -0.02341136522591114, 0.055935882031917572, -0.0532408207654953, -0.023237993940711021, -0.029069675132632256, -0.066677719354629517, -0.026555435732007027, 0.071231670677661896, 0.016340438276529312, -0.032817251980304718, -0.080671273171901703, -0.12293699383735657, 0.013373113237321377, -0.036595765501260757, -0.069567732512950897, 0.049094114452600479, -0.0033323310781270266, -0.01988331601023674, 0.1109028160572052, 0.054253891110420227, -0.052787031978368759, 0.10678544640541077, -0.056975588202476501, -0.07748645544052124, 0.050993494689464569, -0.083271525800228119, 0.026064857840538025, 0.087498776614665985, -0.036368921399116516, -0.060729976743459702, 0.094747602939605713, -0.10030464082956314, -0.052909988909959793, 0.041083246469497681, -0.042692620307207108, 0.022243950515985489, 0.016608279198408127, 0.073607660830020905, -0.039594747126102448, 0.12023059278726578, -0.06854768842458725, -0.037694908678531647, 0.018097937107086182, -0.022881042212247849, -0.060007341206073761, 0.041333690285682678, -0.041427977383136749, 0.04340783879160881, -0.019948240369558334, 0.0094426851719617844, -0.014696858823299408, 0.044290311634540558, 0.060270331799983978, 0.04343133419752121, 0.071811676025390625, -0.034821949899196625, -0.03469625860452652, 0.10404675453901291, 0.065324656665325165, 0.052330914884805679, -0.030297642573714256, -0.043981090188026428, -0.092336587607860565, 0.18133608996868134, 0.041978936642408371, -0.073343195021152496, 0.0044563356786966324, -0.020072940737009048, -0.013349148444831371, 0.13212187588214874, -0.076682388782501221, -0.020648309960961342, -0.045411486178636551, 0.03281000629067421, -0.086110003292560577, 0.13887216150760651, 0.017035521566867828, 0.015068773180246353, 0.032501265406608582, 0.020579887554049492, -0.091500110924243927, 0.038860991597175598, 0.042850978672504425, -0.012193578295409679, -0.042364899069070816, 0.045185074210166931, -0.012246668338775635, 0.081087328493595123, -0.045587271451950073, 0.035534538328647614, 0.049809753894805908, 0.030741745606064796, -0.082295291125774384, -0.01800139807164669, -0.0054413075558841228, -0.006379302591085434, 0.072834089398384094, 0.057042621076107025, -0.16360293328762054, 0.037258606404066086, 0.030761400237679482, -0.063861645758152008, 0.02673567458987236, -0.013937098905444145, -0.0083428658545017242, 0.010493849404156208, -0.021004179492592812, 0.025660568848252296, 0.064128190279006958, 0.044578637927770615, -0.034031517803668976, 0.072273768484592438, 0.070349521934986115, 0.020426083356142044, -0.014718585647642612, 0.037470627576112747, -0.13333725929260254, 0.06002575159072876, -0.027148017659783363, 0.033588271588087082, -0.0052527589723467827, -0.0034934103023260832, -0.073464103043079376, 0.047497592866420746, 0.11750590056180954, -0.0054581006988883018, 0.068092986941337585, -0.036469735205173492, 0.050708983093500137, -0.063870854675769806, 0.11319065093994141, -0.00083071389235556126, 0.036922026425600052, 0.022180899977684021, 0.074417725205421448, -0.011095957830548286, 0.028899645432829857, -0.045092865824699402, 0.077790766954421997, -0.018172003328800201, -0.01293399091809988, 0.0083061438053846359, 0.096756957471370697, 0.013833566568791866, 0.033757217228412628, 0.050175171345472336, 0.023968160152435303, 0.065327413380146027, 0.083509497344493866, -0.063199937343597412, -0.054273579269647598, 0.020807636901736259, 0.02939123846590519, -0.064588397741317749, 0.059825316071510315, 0.0050118556246161461, -0.026159148663282394, -0.050732366740703583, 0.017403407022356987, 0.06564011424779892, 0.038182526826858521, -0.044729098677635193, 0.10144226998090744, -0.05685766413807869, -0.053042307496070862, -0.0085247810930013657, 0.083948813378810883, -0.10512161999940872, 0.12434937804937363, -0.088154181838035583, -0.053349155932664871, 0.13166247308254242, 0.075093738734722137, -0.098973102867603302, 0.005338041577488184, -0.1037624329328537, 0.025970501825213432, 0.076123900711536407, -0.0014093195786699653, -0.048428788781166077, 0.075305067002773285, 0.023762146010994911, -0.065491251647472382, 0.060036160051822662, 0.035972867161035538, -0.055693279951810837, -0.013144432567059994, -0.024240298196673393, -0.073094092309474945, 0.035121079534292221, 0.10102982074022293, 0.040269125252962112, 0.05688830092549324, -0.0052572088316082954, 0.013731257990002632, 0.085488632321357727, 0.083767585456371307, -0.016408488154411316, 0.067679308354854584, -0.033674199134111404, -0.029553662985563278, -0.002238578163087368, 0.044026900082826614, 0.043303392827510834, 0.033355794847011566, 0.00065784994512796402, -0.026950400322675705, 0.074469670653343201, -0.010779769159853458, 0.096118703484535217, 0.018168028444051743, -0.00089335942175239325, -0.098936840891838074, 0.083247490227222443, 0.11026647686958313, 0.12625963985919952, 0.048735402524471283, -0.044992189854383469, -0.13703872263431549, 0.061301201581954956, 0.023379033431410789, 0.025625675916671753, -0.064324982464313507, 0.067376434803009033, -0.064546577632427216, 0.13781039416790009, -0.035911273211240768, -0.0056926491670310497, 0.029934775084257126, -0.040478292852640152, -0.03751286119222641, 0.049506518989801407, 0.070841901004314423, 0.0081596355885267258, 0.032695218920707703, 0.05538814514875412, -0.0070269047282636166, 0.045763052999973297, 0.12479586899280548, -0.039655674248933792, -0.010911787860095501, 0.080070778727531433, 0.080361627042293549, -0.10343106091022491, 0.14210768043994904, 0.04022672027349472, -0.015413212589919567, 0.0071417945437133312, 0.012568065896630287, -0.11035431921482086, 0.14802965521812439, 0.0051075201481580734, -0.072582699358463287, 0.010549522005021572, 0.044487442821264267, -0.063423633575439453, 0.075263485312461853, 0.0068948632106184959, -0.088104255497455597, 0.033057782799005508, 0.015836365520954132, -0.12570595741271973, 0.062687575817108154, -0.026779578998684883, -0.048321466892957687, -0.066722407937049866, 0.039184123277664185, -0.003493741387501359, 0.02148030698299408, 0.026502044871449471, 0.025137575343251228, -0.03527320921421051, 0.061194490641355515, -0.072753101587295532, 0.02144707553088665, -0.053506996482610703, -0.036408327519893646, -0.019230503588914871, -0.020468782633543015, -0.038908567279577255, 0.094031833112239838, -0.037767376750707626, -0.10504698008298874, -0.035544436424970627, -0.0040902202017605305, 0.012893275357782841, 0.13399890065193176, -0.025316823273897171, -0.071460328996181488, 0.0495728999376297, -0.095821775496006012, 0.013004281558096409, 0.075807005167007446, 0.014339743182063103, -0.1210988387465477, 0.019798921421170235, -0.0043407073244452477, 0.099380545318126678, 0.087588869035243988, -0.0090806726366281509, 
  0.045381955802440643, 0.0086459917947649956, -0.0816778764128685, -0.071065597236156464, -0.051531154662370682, 0.016002047806978226, 0.065309874713420868, -0.032192733138799667, -0.12404239177703857, -0.067253440618515015, -0.047263491898775101, -0.040104839950799942, 0.0105914156883955, -0.069079235196113586, -0.13954952359199524, 0.05600302666425705, -0.043260350823402405, 0.063171952962875366, -0.0059297024272382259, -0.074091300368309021, -0.012303439900279045, -0.023695914074778557, -0.058885298669338226, -0.071860581636428833, 0.046250443905591965, -0.031599491834640503, -0.11794103682041168, -0.014463635161519051, -0.011200546287000179, -0.070819348096847534, 0.058929584920406342, 0.045475736260414124, -0.033999763429164886, -0.053357895463705063, -0.0089545641094446182, 0.042526200413703918, -0.02348024770617485, 0.044815465807914734, -0.098181530833244324, -0.044200580567121506, -0.079340450465679169, -0.032091647386550903, 0.062688432633876801, 0.084942802786827087, -0.059176485985517502, 0.0033291187137365341, -0.11852291226387024, 0.051941640675067902, -0.029327845200896263, -0.021396197378635406, -0.0073113366961479187, 0.011989390477538109, -0.11901170760393143, 0.024444367736577988, 0.061450015753507614, 0.058015082031488419, -0.034254349768161774, -0.046880863606929779, -0.10057780891656876, 0.0199749656021595, 0.033129643648862839, 0.047703422605991364, -0.054941654205322266, -0.077229715883731842, -0.097146272659301758, 0.074083693325519562, 0.014392919838428497, 0.09630284458398819, -0.075779274106025696, 0.0050598378293216228, 0.003802119055762887, 0.031321730464696884, 0.0037513095885515213, 0.08220256119966507, -0.090069659054279327, -0.0049598547630012035, -0.045154046267271042, 0.026223188266158104, -0.017178324982523918, 0.025539159774780273, 0.027792312204837799, -0.1291251927614212, -0.088186673820018768, -0.056579381227493286, -0.10645061731338501, 0.1005648598074913, 0.065103232860565186, -0.052136603742837906, 0.015710456296801567, -0.10081393271684647, -0.0027443636208772659, -0.041160136461257935, 0.058352693915367126, -0.0042118141427636147, -0.056385554373264313, -0.089796647429466248, -0.10047569870948792, 0.024423770606517792, 0.0067069213837385178, -0.057612664997577667, -0.036534622311592102, 0.038413707166910172, -0.031497299671173096, 0.01680772565305233, 0.072864271700382233, -0.07049144059419632, -0.0010799438459798694, 0.013149785809218884, -0.094399333000183105, -0.0011502224951982498, 0.10027873516082764, -0.088933289051055908, -0.071676842868328094, -0.08091001957654953, 0.010024732910096645, 0.068976707756519318, -0.059830103069543839, 0.060944352298974991, -0.065526455640792847, -0.047289993613958359, -0.03467097133398056, -0.046669397503137589, 0.079585067927837372, 0.021394265815615654, -0.04665563628077507, 0.055313199758529663, 0.038602873682975769, 0.015294639393687248, 0.10900387167930603, -0.096891239285469055, 0.036107707768678665, -0.086044467985630035, 0.029024772346019745, 0.01378282718360424, 0.017317885532975197, 0.0098647521808743477, -0.056596636772155762, -0.074351929128170013, 0.017561078071594238, -0.020155556499958038, -0.029235640540719032, 0.016400765627622604, -0.025023998692631721, -0.00028248640592209995, -0.023291099816560745, -0.00096706469776108861, 0.016901988536119461, -0.042177833616733551, -0.031034629791975021, -0.10576684772968292, -0.00010293837840436026, -0.062561392784118652, 0.01925053633749485, 0.0060357148759067059, 0.0039952113293111324, 0.015080176293849945, -0.065848201513290405, -0.075529366731643677, 0.079934075474739075, -0.06327548623085022, -0.068826809525489807, -0.018635084852576256, 0.03322913870215416, 0.0068737142719328403, 0.043878126889467239, -0.056678805500268936, -0.13635629415512085, 0.024496601894497871, -0.027670297771692276, -0.054507855325937271, 0.030817124992609024, -0.066363975405693054, 0.0099359843879938126, 0.027752000838518143, 0.06190035492181778, 0.024527501314878464, 0.013794958591461182, -0.074413403868675232, 0.068688265979290009, -0.056986354291439056, -0.15245488286018372, -0.109390027821064, 0.05824853852391243, -0.11537230014801025, -0.067226380109786987, -0.062367606908082962, -0.14687944948673248, -0.048999980092048645, -0.061868958175182343, -0.023521779105067253, 0.062345899641513824, -0.054742701351642609, -0.13295301795005798, -0.084053047001361847, -0.025467555969953537, 0.0085045211017131805, -0.06812160462141037, 0.008312596008181572, -0.16143903136253357, -0.12219113856554031, 0.027218719944357872, -0.056178368628025055, -0.0090716229751706123, -0.09138275682926178, -0.098161675035953522, -0.013124546967446804, -0.012111011892557144, -0.00058213563170284033, -0.0020700662862509489, -0.076490946114063263, -0.13143011927604675, -0.05927460640668869, -0.045131579041481018, -0.040313344448804855, -0.033406086266040802, -0.14324960112571716, -0.10539054125547409, -0.13889721035957336, 0.047435391694307327, -0.0053761531598865986, -0.026473456993699074, -0.033247213810682297, 0.0091713294386863708, -0.091984875500202179, -0.0075073814950883389, -0.028977122157812119, -0.0014502896228805184, -0.12358401715755463, -0.059562318027019501, -0.07145170122385025, 0.011572658084332943, 0.12212980538606644, -0.030041148886084557, -0.1324191689491272, -0.073406942188739777, -0.10466781258583069, -0.00036326277768239379, 0.12770506739616394, 0.10608737915754318, -0.05515047162771225, -0.036715026944875717, -0.098183467984199524, -0.059198707342147827, 0.052798636257648468, 0.098868623375892639, -0.061566304415464401, -0.062463168054819107, -0.065774381160736084, -0.025947296991944313, 0.17847989499568939, 0.070564530789852142, -0.022655658423900604, -0.072156749665737152, -0.11010647565126419, 0.0017707663355395198, 0.11237285286188126, 0.054446883499622345, -0.071568839251995087, -0.032222900539636612, 0.03674592450261116, 0.069321885704994202, 0.12612324953079224, 0.003047337057068944, -0.010464132763445377, 0.097107291221618652, 0.0024922776501625776, 0.039022095501422882, 0.073373034596443176, 0.024729644879698753, -0.1566205769777298, -0.037729717791080475, -0.038003530353307724, -0.039391890168190002, -0.032204721122980118, 0.055156733840703964, -0.082590088248252869, -0.055206265300512314, -0.030251761898398399, 0.043084725737571716, 0.052472714334726334, 0.036909785121679306, -0.08003668487071991, 0.065585874021053314, -0.05110110342502594, 0.074421040713787079, 0.07539656013250351, 0.01251764502376318, -0.12079561501741409, 0.049313239753246307, -0.072977297008037567, 0.094594269990921021, 0.073157638311386108, 0.015139078721404076, -0.072324305772781372, -0.024776346981525421, -0.019177896901965141, 0.0970163494348526, -0.0016844278434291482, 0.027481654658913612, 0.030221644788980484, -0.029224695637822151, -0.13334459066390991, 0.06017698347568512, 0.048592433333396912, -0.043989755213260651, -0.018238071352243423, -0.013237531296908855, -0.030858144164085388, 0.0090244505554437637, 0.031717032194137573, 0.00051099108532071114, 0.02034483291208744, 0.074389509856700897, 0.0079913381487131119, -0.066971257328987122, -0.061800114810466766, 0.045984715223312378, -0.019305584952235222, -0.034461528062820435, -0.12896467745304108, -0.049081172794103622, 0.056970968842506409, 0.070001594722270966, -0.064234554767608643, 0.10056638717651367, -0.038993757218122482, 0.0717029869556427, -0.011869818903505802, -0.077946290373802185, 0.021621964871883392, -0.01394385565072298, 0.00098714279010891914, 0.017961684614419937, 0.026665970683097839, -0.071064792573451996, 0.033916480839252472, 0.0061079394072294235, 0.056625373661518097, -0.018210688605904579, 0.016813833266496658, -0.018818490207195282, 0.039035290479660034, 0.085556581616401672, 0.030367335304617882, -0.034599263221025467, 0.045303665101528168, -0.064287476241588593, 0.038179926574230194, -0.016802730038762093, -0.080124959349632263, -0.0664481520652771, 0.11533597111701965, -0.039928510785102844, -0.11964952200651169, 0.11483481526374817, -0.10777819156646729, 0.019509416073560715, 0.058828461915254593, 0.06258092075586319, -0.0021697767078876495, -0.016548058018088341, -0.081970468163490295, 0.029669592157006264, 0.08457590639591217, 0.034538187086582184, -0.03279414027929306, 0.087653830647468567, -0.028222683817148209, -0.0086392555385828018, 0.053495913743972778, 0.021991642192006111, -0.047212157398462296, 0.070472218096256256, 0.03168623149394989, -0.0074499654583632946, 0.11026352643966675, 0.055704604834318161, -0.046755693852901459, -0.0037578458432108164, -0.02730637788772583, -0.074895069003105164, 0.078173942863941193, -0.092345848679542542, 0.083243519067764282, -0.0040309852920472622, -0.0053897174075245857, -0.026933696120977402, 0.16748999059200287, -0.049155700951814651, 0.033926531672477722, 0.055129174143075943, 0.024228250607848167, 0.016170164570212364, 0.13164889812469482, -0.089700199663639069, 0.048682175576686859, 0.10968335717916489, 0.038610976189374924, -0.074263781309127808, 0.21307167410850525, -0.076135545969009399, -0.01656235009431839, 0.16244715452194214, 0.076223388314247131, -0.082244366407394409, 0.1545310765504837, -0.0077248299494385719, 0.053750444203615189, 0.080891504883766174, -0.010465248487889767, -0.10518242418766022, 0.21281009912490845, -0.033770803362131119, 0.077783882617950439, 0.082556746900081635, 0.040227044373750687, -0.044851109385490417, 0.058356538414955139, -0.0002446921425871551, 0.074241660535335541, 0.080303572118282318, -0.024140270426869392, -0.03285294771194458, 0.11444420367479324, -0.086679615080356598, -0.040133025497198105, 0.060774020850658417, -0.014558614231646061, -0.088243506848812103, 0.12528802454471588, -0.088273681700229645, -0.045098774135112762, 0.016231833025813103, -0.03418901190161705, -0.057213108986616135, 0.10547743737697601, -0.03968348354101181, 0.045789908617734909, 0.10578205436468124, 0.042730767279863358, -0.022699030116200447, -0.027933010831475258, -0.065092243254184723, -0.022922994568943977, 0.0025845570489764214, 0.015791654586791992, 0.083207912743091583, -0.03289436548948288, -0.17751979827880859, 0.060232046991586685, 0.095779024064540863, 0.04538600891828537, -0.11248344928026199, 0.068584010004997253, 0.035002764314413071, 0.021821897476911545, 0.049777168780565262, 0.03066554106771946, -0.060389269143342972, -0.065127700567245483, 0.003667700570076704, 0.019620243459939957, -0.013159696012735367, -0.015428701415657997, -0.028143284842371941, -0.088292054831981659, -0.018153291195631027, -0.050143659114837646, 0.028503617271780968, 0.084248602390289307, -0.094608858227729797, 0.072693027555942535, 0.051261082291603088, -0.0049994057044386864, 0.010337854735553265, -0.0023382662329822779, -0.12557761371135712, 0.049992304295301437, -0.07145797461271286, -0.087859839200973511, -0.044757533818483353, -0.032008584588766098, -0.017739348113536835, 0.024355622008442879, -0.039903879165649414, -0.030913051217794418, 0.076829865574836731, -0.011464107781648636, -0.10242311656475067, 0.13062502443790436, -0.066531814634799957, -0.0083518745377659798, 0.061873838305473328, 0.073035247623920441, -0.051607012748718262, 0.045704882591962814, 0.028412682935595512, -0.012836772948503494, 0.044587355107069016, 0.071364328265190125, -0.030942579731345177, 0.13432994484901428, -0.060190342366695404, -0.013162801973521709, -0.03523668646812439, 0.044477216899394989, -0.064935117959976196, 0.028128558769822121, -0.073237843811511993, 0.020516213029623032, 0.069282971322536469, 0.032013211399316788, -0.016369948163628578, 0.075409933924674988, -0.0387440025806427, 0.025126539170742035, 0.025025291368365288, -0.027837738394737244, -0.0054208445362746716, -0.10202039033174515, 0.046228010207414627, -0.0063606305047869682, 0.040363192558288574, 0.010691531002521515, 0.033737160265445709, -0.091207578778266907, -0.099168427288532257, -0.061451900750398636, -0.0067770164459943771, 0.0038396238815039396, 0.04678943008184433, 0.021664321422576904, -0.089988254010677338, -0.007977738045156002, -0.013741946779191494, 0.00087924051331356168, -0.026080304756760597, -0.062122121453285217, -0.098023906350135803, -0.031093934550881386, -0.016299774870276451, 0.054084569215774536, -0.017926273867487907, -0.056643377989530563, -0.046207744628190994, -0.036953154951334, 0.061070960015058517, 0.1024957001209259, -0.031629074364900589, 0.073099628090858459, -0.078659705817699432, 0.043867278844118118, 0.047955885529518127, -0.024848032742738724, -0.094043731689453125, 0.12550795078277588, -0.098942376673221588, -0.014922638423740864, 0.082694843411445618, -0.076551631093025208, -0.097398847341537476, 0.074403651058673859, -0.015732573345303535, -0.027604734525084496, 0.03883565217256546, 0.064985476434230804, 0.052053038030862808, -0.014142781496047974, -0.079388901591300964, -0.03884679451584816, 0.050439856946468353, 0.082656271755695343, 0.080535344779491425, -0.032612986862659454, -0.12197516858577728, -0.076359398663043976, -0.013195056468248367, -0.0059807263314723969, -0.057324841618537903, 0.040213748812675476, -0.10971749573945999, -0.11561677604913712, -0.060911022126674652, 0.10738760232925415, 0.058447077870368958, 0.084990695118904114, -0.0087107112631201744, -0.084385469555854797, -0.09587174654006958, 0.095043294131755829, 0.031291641294956207, 0.045411460101604462, -0.087459400296211243, -0.13597111403942108, -0.12685048580169678, 0.051384657621383667, -0.004502465482801199, -0.030429942533373833, -0.11921270936727524, -0.07102801650762558, -0.11418572068214417, 0.047062106430530548, -0.094494566321372986, -0.019847840070724487, -0.085853725671768188, -0.054881654679775238, -0.038180194795131683, 0.13316899538040161, -0.0062443721108138561, 0.064019806683063507, -0.015155103988945484, -0.049581345170736313, 0.019079392775893211, 0.0029546825680881739, -0.036772646009922028, -0.0032796617597341537, 0.034857090562582016, 0.013315396383404732, -0.021056197583675385, 0.083655908703804016, 0.060514628887176514, 0.089134544134140015, 0.049917165189981461, -0.12794597446918488, -0.057851560413837433, 0.021487513557076454, 0.058526612818241119, 0.030312705785036087, -0.061218652874231339, -0.099753767251968384, -0.085803575813770294, 0.029775667935609818, -0.054035849869251251, 0.012512403540313244, 0.03598615899682045, -0.048322979360818863, 0.054790850728750229, 0.028583571314811707, 0.040146280080080032, -0.024438608437776566, 0.063836328685283661, -0.12638087570667267, -0.059997055679559708, 0.018495164811611176, 0.035759415477514267, -0.00071916787419468164, 0.026080133393406868, -0.078857965767383575, -0.021308915689587593, -0.022864557802677155, -0.11098963767290115, -0.05472550168633461, 0.018243027850985527, -0.11356907337903976, -0.0031080816406756639, 0.022320259362459183, -0.077279925346374512, -0.052469667047262192, -0.024882989004254341, -0.076813668012619019, 0.043386701494455338, 0.065371498465538025, 0.0026064934208989143, 0.049607031047344208, 0.093193136155605316, -0.016978854313492775, 0.028956424444913864, 0.059826888144016266, 0.016551844775676727, -0.08741346001625061, 0.083307981491088867, 0.032676029950380325, -0.065736822783946991, 0.072314158082008362, 0.032881401479244232, 0.032654400914907455, 0.091814719140529633, -0.050780918449163437, -0.051893003284931183, -0.011084538884460926, -0.032171044498682022, 0.0052315848879516125, -0.0044725909829139709, -0.0082542300224304199, -0.095360651612281799, 0.075306393206119537, -0.069950759410858154, -0.038322243839502335, 0.0058830785565078259, -0.01088070310652256, -0.048222314566373825, -0.036302804946899414, 0.042554557323455811, 0.0018195390002802014, -0.024366509169340134, -0.058174144476652145, -0.072489790618419647, -0.047632839530706406, -0.0056305443868041039, 0.10797113925218582, 0.048012275248765945, -0.035707183182239532, -0.075753673911094666, -0.049434646964073181, 0.054926231503486633, -0.03372785821557045, -0.01973414234817028, -0.058129183948040009, -0.044542223215103149, -0.035218995064496994, 0.12558175623416901, 0.097128227353096008, 0.016513396054506302, 0.037530634552240372, -0.067034915089607239, -0.054699435830116272, 0.075342811644077301, 0.050025388598442078, 0.096482783555984497, -0.081291630864143372, -0.034156832844018936, -0.01820044219493866, 0.06317872554063797, -0.045764166861772537, 0.045294966548681259, -0.057236485183238983, -0.034415639936923981, 0.085217311978340149, -0.029373092576861382, -0.025814687833189964, 0.021909505128860474, -0.1018928587436676, -0.060231480747461319, -0.030534673482179642, -0.014775117859244347, 0.060800977051258087, 0.10072844475507736, -0.074014216661453247, -0.081589400768280029, -0.057665571570396423, 0.039329387247562408, 0.087676569819450378, 0.026433415710926056, -0.056209269911050797, 0.0013816816499456763, 0.030381858348846436, -0.017720362171530724, 0.027960719540715218, 0.038560934364795685, -0.036445215344429016, -0.037008374929428101, -0.0039650951512157917, -0.04675288125872612, 0.094080530107021332, 0.017807569354772568, 0.055550754070281982, -0.11569173634052277, 0.021800581365823746, -0.003821016289293766, -0.02878979966044426, 0.077977880835533142, 0.026447083801031113, -0.055217389017343521, 0.066035479307174683, 0.060908906161785126, 0.10980661958456039, 0.068839117884635925, -0.11117921769618988, -0.14189904928207397, 0.0331086665391922, 0.08729109913110733, 0.059897348284721375, 0.035041891038417816, -0.073742084205150604, -0.014364359900355339, 0.068285688757896423, 0.0046309982426464558, 0.13206090033054352, 0.022799341008067131, -0.031369250267744064, -0.0075901160016655922, -0.048590008169412613, 0.060572925955057144, 0.099826745688915253, 0.10538315773010254, -0.082183271646499634, -0.082998842000961304, 0.045244939625263214, -0.063264794647693634, 0.022235436365008354, -0.025765834376215935, -0.011687099002301693, 0.0044607380405068398, 0.037135764956474304, -0.048610888421535492, -0.018739262595772743, 0.075712151825428009, -0.056246176362037659, 0.00061285705305635929, -0.027891462668776512, -0.089279375970363617, 0.10293108969926834, 0.040313977748155594, -0.068326577544212341, 0.0079082325100898743, -0.015934210270643234, 0.0062182932160794735, 0.08289635181427002, -0.019727814942598343, -0.072489507496356964, -0.052175987511873245, 0.026487058028578758, 0.095298662781715393, 0.055177841335535049, -0.03825678676366806, 0.017520537599921227, 0.065108023583889008, 0.052243005484342575, 0.056474164128303528, -0.023937167599797249, -0.037351425737142563, -0.041264798492193222, 0.069288812577724457, -0.01049948763102293, -0.04918120801448822, -0.048315972089767456, 0.1177738681435585, -0.093421190977096558, -0.055732972919940948, -0.10312256217002869, 0.051978439092636108, -0.032228197902441025, 0.15792782604694366, -0.077523641288280487, -0.0017802069196477532, -0.012250542640686035, 0.052430693060159683, -0.054139968007802963, 0.046776287257671356, 0.00041261198930442333, 0.017574578523635864, -0.01664816215634346, 0.063355118036270142, -0.029852977022528648, 0.053993020206689835, 0.013310287147760391, -0.029508911073207855, 0.030016336590051651, 0.10585885494947433, 0.046573072671890259, 0.10539741069078445, -0.028135742992162704, 0.0038144506979733706, -0.035272955894470215, 0.09091583639383316, 0.056257292628288269, 0.11328506469726562, 0.016528500244021416, -0.038634259253740311, -0.0095835262909531593, 0.066009432077407837, 0.040818478912115097, 0.08550967276096344, 0.042958647012710571, -0.031901489943265915, -0.0058513474650681019, -0.043198972940444946, -0.049571607261896133, 0.14945615828037262, 0.039028000086545944, 0.034903015941381454, -0.037666413933038712, 0.057387001812458038, -0.086696624755859375, 0.086424045264720917, 0.039590869098901749, -0.033278085291385651, -0.10496962070465088, 0.03656141459941864, -0.057505123317241669, 0.022684667259454727, 0.083187192678451538, 0.060658790171146393, -0.1207500696182251, -0.024265717715024948, -0.15301534533500671, 0.089347332715988159, -0.023482805117964745, 0.064022161066532135, 0.018706265836954117, -0.045682765543460846, -0.034817125648260117, 0.10564924031496048, 0.10205832868814468, 0.089185804128646851, -0.10313313454389572, -0.018528401851654053, -0.029647715389728546, 0.17758248746395111, 0.07820931077003479, 
  -0.012363020330667496, -0.0072243493050336838, -0.037779979407787323, -0.093291126191616058, -0.057582907378673553, 0.069953814148902893, -0.029948581010103226, -0.0063845841214060783, -0.054073229432106018, 0.0036412253975868225, 0.079352736473083496, 0.001397826592437923, 0.074099339544773102, 0.0084967417642474174, 0.056715339422225952, 0.013226696290075779, 0.060776013880968094, 0.051669307053089142, -0.027139211073517799, -0.046319175511598587, 0.013664125464856625, 0.035145971924066544, -0.024279270321130753, -0.065411150455474854, 0.066960297524929047, -0.056922722607851028, 0.028104083612561226, -0.030398841947317123, 0.034981835633516312, 0.044473614543676376, 0.095465362071990967, -0.081278316676616669, -0.062981180846691132, -0.015521408058702946, -0.045149698853492737, -0.029249221086502075, 0.067795783281326294, -0.043600216507911682, -0.037365514785051346, 0.0135981235653162, -0.034414228051900864, 0.013860591687262058, 0.011035110801458359, 0.0396418496966362, -0.055592577904462814, 0.0033655890729278326, -0.10543305426836014, 0.026308508589863777, 0.016252981498837471, -0.041709888726472855, 0.076154902577400208, 0.026243312284350395, 0.030082033947110176, 0.0029021208174526691, 0.0003927612560801208, -0.017811205238103867, -0.0069672507233917713, 0.0020342946518212557, -0.0087776575237512589, -0.023184901103377342, 0.0072975358925759792, -0.037152901291847229, 0.055021695792675018, -0.04934273287653923, 0.024594360962510109, -0.02041696198284626, -0.012092649005353451, -0.05508815124630928, -0.047989379614591599, 0.11150435358285904, -0.022308932617306709, -0.060878168791532516, 0.013370486907660961, 0.046706981956958771, 0.036274183541536331, 0.021789653226733208, -0.056569218635559082, -0.0030936421826481819, 0.038744054734706879, -0.047295302152633667, -0.06197979673743248, 0.014060322195291519, -0.023297460749745369, -0.046483568847179413, -0.023923087865114212, -0.03801935538649559, 0.019802819937467575, -0.069767527282238007, -0.085815444588661194, 0.055820822715759277, 0.058109413832426071, -0.090425446629524231, 0.039671730250120163, -0.077873587608337402, -0.0056136706843972206, -0.045682061463594437, 0.094498246908187866, 0.031634129583835602, 0.080898657441139221, -0.030974583700299263, 0.017737060785293579, -0.022760560736060143, 0.0048022503033280373, -0.0032351480331271887, 0.00060209259390830994, -0.010486694984138012, 0.026301901787519455, 0.0074482737109065056, 0.017129328101873398, -0.074680648744106293, 0.025522161275148392, -0.0059161428362131119, 0.070070691406726837, 0.013982324860990047, -0.038613617420196533, 0.0027265662793070078, -0.0027634159196168184, -0.010305874049663544, -0.073130108416080475, 0.06204792857170105, -0.023480908945202827, -0.07892850786447525, -0.010480321012437344, 0.050840962678194046, -0.038639593869447708, 0.064873084425926208, -0.043051104992628098, 0.057957574725151062, -0.023094143718481064, 0.042432300746440887, -0.046779796481132507, 0.0046155401505529881, 0.018292265012860298, 0.026305463165044785, 0.073052041232585907, -0.018214941024780273, 0.030519021674990654, -0.026235833764076233, 0.048632841557264328, -0.054454877972602844, -0.036187995225191116, -0.044972561299800873, 0.028457125648856163, -0.032084200531244278, -0.05107136070728302, 0.0087269097566604614, 0.093531474471092224, -0.055196031928062439, 0.0511656254529953, 0.00052197527838870883, -0.03518209233880043, 0.057024754583835602, -0.015081076882779598, 0.0014516283990815282, 0.035765506327152252, 0.070069558918476105, -0.069452397525310516, -0.0636005699634552, 0.083207681775093079, 0.067222654819488525, -0.058356150984764099, 0.096325814723968506, -0.034223243594169617, -0.030913613736629486, -0.042072612792253494, 0.030357455834746361, 0.030195603147149086, 0.1289161890745163, -0.025890197604894638, -0.010216303169727325, -0.050214633345603943, -0.027649667114019394, -0.0066708475351333618, 0.057416640222072601, -0.11117740720510483, 0.069654449820518494, 0.092049218714237213, -0.025345996022224426, 0.0057090288028120995, 0.056463778018951416, 0.11658066511154175, -0.070566318929195404, -0.020523147657513618, 0.0051497896201908588, -0.016984108835458755, -0.0095182731747627258, 0.18536493182182312, -0.024824045598506927, 0.030114801600575447, 0.10455002635717392, -0.011321109719574451, -0.015310042537748814, 0.12339960038661957, -0.090878985822200775, -0.0062645114958286285, -0.015097783878445625, -0.047630265355110168, 0.048945322632789612, 0.025385042652487755, -0.050212837755680084, -0.10268096625804901, 0.015442284755408764, 0.018812375143170357, 0.040723543614149094, 0.13531868159770966, -0.018245857208967209, -0.027517169713973999, 0.005643830168992281, 0.05063895508646965, 0.067784599959850311, 0.12893594801425934, -0.091129206120967865, -0.1489543616771698, -0.082169085741043091, -0.016842594370245934, 0.008314475417137146, 0.020158937200903893, -0.014312216080725193, -0.11278851330280304, -0.003983648493885994, -0.089364871382713318, -0.025578858330845833, 0.10296045988798141, -0.015452864579856396, -0.13375364243984222, -0.01988205686211586, -0.034391060471534729, 0.056952048093080521, -0.0099571458995342255, -0.056708190590143204, 0.012276937253773212, -0.053522199392318726, -0.055982481688261032, 0.02692674845457077, -0.061997294425964355, -0.020325068384408951, -0.0066473651677370071, -0.034631647169589996, -0.12834629416465759, 0.12356531620025635, 0.046971257776021957, 0.0056963334791362286, -0.048867750912904739, -0.046318341046571732, 0.033734388649463654, 0.075063824653625488, -0.060450069606304169, 0.11436587572097778, 0.020406695082783699, 0.057212155312299728, -0.078627854585647583, 0.053984023630619049, 0.035718496888875961, 0.016329536214470863, -0.073011048138141632, 0.015811298042535782, 0.028332017362117767, 0.091955102980136871, 0.072700910270214081, 0.050520438700914383, -0.06254202127456665, -0.017994929105043411, -0.0059082843363285065, 0.043516151607036591, 0.030968882143497467, -0.054362908005714417, 0.015489102341234684, 0.0017071181209757924, -0.062227733433246613, 0.11531120538711548, 0.0026472874451428652, -0.025980338454246521, -0.035232227295637131, 0.025683023035526276, -0.025296032428741455, 0.10945837199687958, 0.064791083335876465, 0.04878370463848114, -0.036007620394229889, 0.097871638834476471, -0.011219499632716179, -0.013514560647308826, 0.019791344180703163, -0.070359215140342712, -0.025661453604698181, 0.057728547602891922, 0.07674696296453476, 0.064346723258495331, 0.032375242561101913, 0.074150174856185913, 0.066405855119228363, 0.033047307282686234, 0.1129598468542099, 0.07755839079618454, -0.043577782809734344, -0.024520969018340111, -0.087038397789001465, -0.0017838760977610946, 0.11792025715112686, 0.063482627272605896, 0.094601139426231384, -0.013832733035087585, -0.09271770715713501, 0.047724179923534393, 0.017917636781930923, 0.014144880697131157, 0.071760892868041992, -0.0157821886241436, -0.031192729249596596, 0.059234883636236191, 0.093046762049198151, 0.10094446688890457, 0.067213326692581177, 0.10423403978347778, 0.038245316594839096, 0.11408853530883789, 0.035037878900766373, 0.036429997533559799, -0.016324384137988091, 0.092422172427177429, -0.015066236257553101, 0.08976321667432785, 0.11419221013784409, 0.10745105147361755, -0.05218563973903656, 0.085084907710552216, -0.056123077869415283, 0.10783133655786514, 0.019184887409210205, 0.018152844160795212, -0.0331101194024086, 0.057438790798187256, 0.017117317765951157, -0.013397668488323689, 0.040308982133865356, 0.057889070361852646, 0.012470918707549572, 0.11423196643590927, -0.034690186381340027, 0.12109151482582092, 0.1074928417801857, 0.11105519533157349, 0.013564279302954674, 0.031304862350225449, -0.067835569381713867, 0.14127372205257416, 0.085305392742156982, 0.048150260001420975, -0.050820875912904739, 0.020629601553082466, -0.077890068292617798, 0.021581828594207764, 0.11686156690120697, 0.028240799903869629, -0.10533715784549713, 0.078616924583911896, -0.054621506482362747, 0.049285817891359329, 0.009148523211479187, 0.1061481386423111, -0.038900617510080338, 0.081185929477214813, -0.011765274219214916, 0.095156602561473846, -0.01770932599902153, 0.017592420801520348, 0.02249523438513279, -0.023362597450613976, -0.003629742655903101, -0.017230095341801643, 0.079368226230144501, 0.031745534390211105, 0.026926204562187195, 0.025609839707612991, -0.039622422307729721, 0.015051556751132011, 0.0063878912478685379, 0.097915023565292358, 0.029884239658713341, -0.022239387035369873, -0.087173767387866974, 0.048679884523153305, 0.030401168391108513, 0.044988848268985748, -0.11769039183855057, 0.031260255724191666, -0.065879620611667633, -0.00063235190464183688, 0.019936073571443558, 0.019245848059654236, -0.057637941092252731, -0.018225532025098801, 0.016344362869858742, 0.071157008409500122, -0.011866042390465736, 0.044094804674386978, -0.011040532030165195, 0.037454500794410706, -0.092028021812438965, 0.13640406727790833, 0.015316762961447239, 0.059764701873064041, -0.059086702764034271, 0.13790504634380341, -0.11707234382629395, 0.00096707185730338097, -0.0021397506352514029, 0.036419503390789032, -0.0029089243616908789, 0.097996987402439117, -0.024557914584875107, -0.03605496883392334, 0.0057172020897269249, -0.004006688017398119, 0.04863850399851799, 0.048448279500007629, -0.063614167273044586, 0.064315378665924072, -0.027746303007006645, 0.089854948222637177, 0.011116540990769863, 0.047682173550128937, -0.03841044008731842, -0.040477927774190903, 0.027918275445699692, 0.105104960501194, -0.074743293225765228, 0.1026768684387207, -0.16803440451622009, 0.072888195514678955, -0.033790271729230881, 0.03207804262638092, -0.045034222304821014, 0.14778164029121399, -0.050401479005813599, 0.039731565862894058, -0.023751864209771156, -0.030365955084562302, -0.037507247179746628, 0.072305336594581604, 0.034481063485145569, 0.088373824954032898, -0.044006012380123138, 0.097856782376766205, -0.045900411903858185, 0.11824475973844528, 0.0022511756978929043, 0.0066946162842214108, 0.0029087644070386887, 0.032993640750646591, -0.056366052478551865, 0.070736385881900787, 0.018856355920433998, 0.046762861311435699, -0.056319858878850937, -0.0045588891953229904, 0.06531938910484314, 0.034708961844444275, -0.054403070360422134, 0.059995874762535095, -0.1034502238035202, 0.0058567337691783905, 0.067168295383453369, 0.073142871260643005, -0.10406804829835892, 0.01223285123705864, -0.041271492838859558, 0.040411002933979034, -0.0291900634765625, -0.0081677902489900589, 0.062592551112174988, -0.0023942217230796814, 0.018240794539451599, 0.059128768742084503, 0.0069566871970891953, 0.069993451237678528, 0.022401615977287292, -0.046044468879699707, -0.10052374005317688, 0.051524471491575241, -0.048337716609239578, 0.093175582587718964, 0.031145775690674782, -0.0011702287010848522, 0.011615414172410965, 0.0011880084639415145, -0.0024599549360573292, -0.0082558616995811462, -0.069879293441772461, -0.010267407633364201, -0.12875840067863464, -0.051064338535070419, 0.068000800907611847, -0.036164693534374237, -0.066245943307876587, 0.040720880031585693, -0.0976061150431633, 0.036875117570161819, 0.096808061003684998, -0.0036299042403697968, -0.0092156510800123215, -0.011320880614221096, -0.10857591032981873, 0.023204147815704346, 0.081941142678260803, 0.14638891816139221, 0.058371633291244507, -0.11900711059570312, -0.14214593172073364, 0.045138455927371979, 0.099375434219837189, -0.007978842593729496, 0.015231940895318985, -0.099101319909095764, -0.1259181946516037, 0.0056844926439225674, -0.018220517784357071, 0.088506758213043213, 0.031366940587759018, 0.018737604841589928, 0.024962963536381721, 0.024855434894561768, -0.011539767496287823, 0.0089529966935515404, 0.03268011286854744, -0.040427699685096741, -0.041652020066976547, -0.062738992273807526, 0.064165569841861725, -0.052909042686223984, -0.040482368320226669, 0.019802926108241081, -0.011149970814585686, 0.065980978310108185, -0.0063438923098146915, 0.05709453672170639, -0.1150628924369812, -0.085846558213233948, -0.025528226047754288, 0.023223642259836197, 0.080936871469020844, -0.025134166702628136, -0.019592903554439545, -0.090423047542572021, -0.07175174355506897, -0.00013829303497914225, 0.021234696730971336, 0.0059350845403969288, 0.006600906141102314, -0.075351469218730927, -0.075474023818969727, -0.048060663044452667, 0.013005776330828667, 0.0107314707711339, -0.057815272361040115, 0.035264808684587479, -0.12674205005168915, -0.076121166348457336, 0.031111869961023331, -0.0027291257865726948, -0.031471382826566696, -0.060913372784852982, -0.036956876516342163, -0.0090918662026524544, 0.022620635107159615, -0.10976496338844299, -0.054016247391700745, -0.089707620441913605, -0.051068149507045746, -0.0566360242664814, 0.075160980224609375, -0.10894568264484406, 0.023334888741374016, -0.046171575784683228, -0.096249677240848541, -0.026223480701446533, 0.022580560296773911, 0.0051369769498705864, 0.053672380745410919, -0.059633582830429077, 0.057098936289548874, -0.042098537087440491, 0.1121557280421257, 0.049374930560588837, -0.051387928426265717, 0.011556352488696575, -0.020821003243327141, -0.022334069013595581, 0.092753991484642029, -0.062048882246017456, 0.0098218601197004318, 0.072920277714729309, 0.09151960164308548, -0.040771961212158203, 0.05501209944486618, 0.0015380792319774628, 0.0092223770916461945, 0.014166126027703285, -0.034319609403610229, 0.018687207251787186, -0.030564043670892715, -0.0069043710827827454, -0.026678565889596939, 0.072080321609973907, 0.013651961460709572, 0.032200749963521957, 0.061503749340772629, -0.055752534419298172, 0.028597520664334297, -0.027578046545386314, 0.018149536103010178, 0.0017225074116140604, 0.026215057820081711, -0.041036207228899002, -0.031339794397354126, 0.00031502667116001248, -0.078940577805042267, 0.020500488579273224, 0.036394424736499786, 0.024761848151683807, -0.11648207902908325, -0.022672209888696671, -0.048940040171146393, 0.043631758540868759, -0.055876031517982483, -0.022970311343669891, 0.022723894566297531, 0.0033468217588961124, -0.037632502615451813, -0.0068230796605348587, 0.041544165462255478, 0.02216559462249279, -0.055401161313056946, 0.10073037445545197, -0.0722765251994133, -0.059589575976133347, 0.031545944511890411, -0.091346561908721924, 0.053041696548461914, -0.047035399824380875, 0.022466717287898064, 0.062300480902194977, -0.016698215156793594, 0.029485451057553291, -0.053479444235563278, -0.054771635681390762, 0.003781128441914916, -0.031790189445018768, -0.038535758852958679, 0.021420277655124664, -0.052705895155668259, -0.035197488963603973, -0.021873664110898972, -0.026674186810851097, 0.085104458034038544, 0.045881982892751694, 0.025739600881934166, -0.071522742509841919, 0.046192515641450882, -0.079672746360301971, 0.034005060791969299, -0.11279480904340744, -0.044799402356147766, -0.0057021817192435265, -0.0178799107670784, -0.11880437284708023, 0.067473128437995911, -0.087608098983764648, 0.037462148815393448, -0.0027292498853057623, 0.050905801355838776, -0.0055757798254489899, 0.0128611009567976, -0.011893538758158684, -0.094594947993755341, -0.029514333233237267, -0.024860367178916931, 0.057209540158510208, 0.070778429508209229, -0.081754237413406372, 0.0078048203140497208, 0.02958628349006176, 0.022209910675883293, 0.024699479341506958, 0.0045461463741958141, -0.030166251584887505, -0.066168047487735748, 0.0354737788438797, -0.057790298014879227, 0.052192963659763336, 0.075389206409454346, -0.026060871779918671, -0.063470564782619476, 0.032868813723325729, 0.034715481102466583, -0.024847706779837608, 0.077285230159759521, 0.034047544002532959, 0.075542353093624115, -0.014590872451663017, -0.057339411228895187, 0.064009897410869598, 0.019022662192583084, 0.01322530210018158, -0.045062858611345291, -0.064031042158603668, -0.036295093595981598, -0.062742523849010468, 0.0248714629560709, -0.042849354445934296, -0.021897835657000542, -0.074263334274291992, 0.11129424721002579, -0.064555108547210693, -0.021270919591188431, -0.003876302158460021, 0.029621565714478493, 0.022279854863882065, 0.04432997852563858, -0.012437473051249981, 0.04222850501537323, -0.030850011855363846, -0.063920401036739349, 0.066832423210144043, 0.042760234326124191, -0.015480171889066696, 0.11350927501916885, -0.037046615034341812, 0.039760258048772812, -0.012630161829292774, 0.096363671123981476, -0.078143224120140076, 0.046926148235797882, 0.068228013813495636, 0.026948925107717514, 0.015627369284629822, 0.049806676805019379, 0.059399135410785675, 0.065603010356426239, -0.00073666824027895927, 0.015939688310027122, 0.050632182508707047, 0.08892793208360672, 0.045184612274169922, -0.037933450192213058, -0.025443039834499359, 0.0036647231318056583, -0.057285826653242111, 0.019040718674659729, -0.016098257154226303, 0.036322548985481262, 0.028235789388418198, -0.056800223886966705, 0.0051032779738306999, -0.028174059465527534, -0.061175078153610229, 0.064814187586307526, -0.1096656545996666, 0.090777471661567688, -0.057175818830728531, 0.039396367967128754, -0.030467566102743149, 0.034046657383441925, -0.021094370633363724, 0.013827119953930378, -0.075043737888336182, 0.0025337249971926212, 0.00028522306820377707, 0.13492864370346069, 0.00079302978701889515, 0.034238986670970917, 0.0013784917537122965, 0.058976609259843826, 0.090220369398593903, 0.0014005987904965878, 0.038371019065380096, 0.031632483005523682, 0.045924112200737, -0.034493710845708847, 0.063965983688831329, 0.093588158488273621, 0.030722301453351974, 0.0054192556999623775, 0.040694326162338257, 0.0014279917813837528, 0.051737841218709946, -0.0058213099837303162, -0.050760805606842041, 0.071785874664783478, -0.0034394918475300074, 0.094496935606002808, -0.042970102280378342, 0.081280447542667389, 0.046390682458877563, -0.027804780751466751, -0.071368634700775146, 0.1006648987531662, 0.05489668995141983, -0.0089056901633739471, -0.029759740456938744, 0.057799283415079117, 0.024160334840416908, 0.026038037613034248, 0.036941204220056534, -0.038248077034950256, 0.034749127924442291, 0.06791890412569046, 0.07280498743057251, 0.078454531729221344, -0.028978820890188217, -0.033104024827480316, 0.011885847896337509, 0.063991725444793701, 0.070918068289756775, 0.10430274158716202, -0.0091611351817846298, -0.0073025655001401901, 0.020951947197318077, 0.064796127378940582, 0.062670804560184479, 0.022470429539680481, 0.042005207389593124, -0.035303272306919098, 0.049284342676401138, 0.0042093303054571152, 0.061847150325775146, 0.0032604068983346224, 0.042715650051832199, -0.037540368735790253, -0.0042977952398359776, -0.041479870676994324, -0.029466839507222176, 0.086188063025474548, -0.083421289920806885, 0.02441713772714138, 0.0087011363357305527, -0.017672888934612274, -0.06430603563785553, -0.05555545911192894, -0.08514038473367691, -0.044776935130357742, 0.056861259043216705, 0.055012922734022141, -0.074311859905719757, -0.004612569697201252, 0.050727419555187225, -0.0033458357211202383, 0.036521453410387039, -0.056337524205446243, -0.054679013788700104, -0.047262378036975861, -0.046369723975658417, -0.050192628055810928, -0.029145529493689537, 0.053169671446084976, -0.044468872249126434, -0.0010376896243542433, -0.01851373165845871, -0.051943287253379822, 0.051707830280065536, 0.041935790330171585, -0.15676304697990417, -0.016992915421724319, -0.030324827879667282, -0.066937677562236786, -0.037609968334436417, 0.039234556257724762, -0.11381353437900543, 0.041455302387475967, -0.040268551558256149, -0.086585991084575653, 0.099996179342269897, -0.00068152259336784482, -0.04802737757563591, 0.050531931221485138, 0.035695105791091919, -0.022364724427461624, -0.039026942104101181, 0.081789180636405945, 0.097622424364089966, 0.021206112578511238, -0.0012332035694271326, -0.038534373044967651, 0.077614001929759979, 0.0079594114795327187, -0.0048151565715670586, -0.024943515658378601, 0.072335205972194672, -0.039593860507011414, 0.079684175550937653, -0.002101273974403739, -0.0092565668746829033, 0.058018933981657028, 0.043308831751346588, -0.096162542700767517, 0.064188167452812195, 0.019988924264907837, 0.045425884425640106, 0.075062692165374756, 0.061082068830728531, 
  -0.10831623524427414, -0.065257132053375244, -0.048135191202163696, 0.12868987023830414, -0.015695024281740189, -0.035785168409347534, -0.030126888304948807, -0.0070666428655385971, -0.03422149270772934, 0.15136285126209259, -0.013380788266658783, -0.0070481318980455399, 0.030910816043615341, -0.082720622420310974, 0.01524716429412365, 0.052617013454437256, -0.086541987955570221, -0.023512629792094231, -0.00053566176211461425, -0.1084238737821579, 0.024458892643451691, 0.12870310246944427, 0.030064184218645096, 0.027730528265237808, -0.045498192310333252, -0.041442465037107468, -0.0025525565724819899, 0.10421502590179443, -0.057624232023954391, 0.048924114555120468, 0.046928428113460541, -0.025132795795798302, -0.084158189594745636, 0.12610122561454773, 0.025078132748603821, 0.074246078729629517, -0.011809372343122959, 0.054041881114244461, 0.011174219660460949, 0.058194853365421295, -0.040783565491437912, 0.11826899647712708, 0.092935353517532349, -0.090446814894676208, -0.054343175143003464, 0.12137497216463089, -0.086216427385807037, 0.04270278662443161, 0.069135256111621857, 0.017353424802422523, -0.056574445217847824, 0.054657731205224991, -0.067415200173854828, 0.096675299108028412, -0.02673342265188694, -0.037169542163610458, -0.088665641844272614, 0.079400353133678436, -0.07020597904920578, 0.10085102170705795, -0.021591205149888992, 0.042560704052448273, -0.0948963463306427, -0.029193541035056114, -0.039038833230733871, 0.10976134985685349, -0.025171076878905296, -0.081620596349239349, -0.053672771900892258, 0.055422369390726089, -0.034449521452188492, 0.11575517058372498, -0.026793556287884712, 0.011576996184885502, -0.0099554434418678284, 0.078491628170013428, -0.046277321875095367, 0.051568593829870224, 0.043536223471164703, -0.034089658409357071, -0.096889249980449677, -0.012615501880645752, -0.098073609173297882, -0.023279409855604172, 0.02303432859480381, -0.07340221107006073, 0.013155796565115452, 0.081009678542613983, -0.080507747828960419, 0.046390827745199203, 0.027249341830611229, -0.050253555178642273, -0.035670161247253418, 0.069022029638290405, -0.023362129926681519, 0.028685126453638077, 0.07768162339925766, 0.026119163259863853, -0.036977753043174744, 0.077446781098842621, -0.10485094785690308, 0.043389357626438141, 0.027936030179262161, 0.054296694695949554, 0.019382501021027565, -0.04139130562543869, -0.099337063729763031, 0.067387379705905914, 0.08672478049993515, -0.032467953860759735, 0.095868401229381561, -0.075117401778697968, 0.006376336794346571, 0.12397703528404236, -0.057298775762319565, 0.031490560621023178, 0.022310154512524605, -0.070038281381130219, 0.038009103387594223, -0.033887345343828201, -0.021592913195490837, 0.09604509174823761, 0.032626718282699585, 0.00036723833181895316, 0.0040181698277592659, 0.032975949347019196, -0.039597921073436737, 0.048345848917961121, -0.055733826011419296, 0.027230078354477882, -0.025795891880989075, -0.029845647513866425, 0.017874201759696007, -0.017333772033452988, 0.045274723321199417, -0.068207047879695892, 0.088138803839683533, 0.0004383029299788177, 0.041194435209035873, 0.081336699426174164, 0.0076566003262996674, -0.034659862518310547, 0.050513368099927902, 0.053401708602905273, 0.045827306807041168, 0.04945971816778183, -0.035526160150766373, 0.028828859329223633, -0.012174166738986969, 0.018903402611613274, 0.064257316291332245, 0.12005196511745453, 0.0204280074685812, 0.069603167474269867, -0.050145324319601059, -0.015234942547976971, 0.027503609657287598, 0.087773777544498444, 0.042928263545036316, 0.010877552442252636, 0.043081820011138916, -0.0074837147258222103, 0.066592186689376831, 0.0034230104647576809, 0.082765586674213409, 0.056067183613777161, -0.040040254592895508, -0.007178756408393383, 0.052236337214708328, 0.0032100721728056669, 0.014993770979344845, -0.016960492357611656, 0.019364373758435249, 0.041053261607885361, 0.062016960233449936, 0.023517139256000519, 0.0056969812139868736, 0.099303081631660461, -0.040470782667398453, -0.079036004841327667, -0.081240341067314148, 0.026867274194955826, -0.14257156848907471, 0.09615277498960495, -0.0037048046942800283, 0.01866721548140049, -0.075579389929771423, -0.011854903772473335, -0.11929073929786682, 0.014681892469525337, -0.022132799029350281, 0.050890404731035233, -0.13342557847499847, -0.011163603514432907, -0.052602235227823257, 0.032372254878282547, -0.039294280111789703, -0.010498748160898685, -0.0066231675446033478, 0.077733032405376434, -0.13226102292537689, 0.0053152083419263363, 0.059873085469007492, 0.059511680155992508, -0.084145963191986084, 0.02815164253115654, -0.025481179356575012, -0.090441681444644928, -0.041983887553215027, 0.056252818554639816, -0.11580393463373184, 0.040610149502754211, -0.075890950858592987, 0.026283431798219681, -0.042381104081869125, -0.047680526971817017, -0.047828894108533859, 0.077882513403892517, -0.072785802185535431, 0.003386346623301506, -0.036531861871480942, -0.045075956732034683, -0.1173306480050087, 0.031514745205640793, -0.16732987761497498, 0.012586455792188644, 0.019079772755503654, 0.067466676235198975, -0.032087311148643494, -0.050682701170444489, -0.067606694996356964, 0.011896797455847263, -0.02825547568500042, 0.065196938812732697, -0.1242784708738327, 0.0213044174015522, -0.10687412321567535, 0.0091542787849903107, -0.010151778347790241, -0.062058988958597183, -0.0041800281032919884, 0.018138483166694641, -0.10184451192617416, 0.070927470922470093, -0.00021331652533262968, -0.069478578865528107, -0.13615241646766663, -0.021906832233071327, -0.17807899415493011, 0.058408793061971664, 0.039884638041257858, 0.062677420675754547, 0.0059581431560218334, -0.010801950469613075, -0.083676993846893311, -0.045790839940309525, 0.036606289446353912, 0.035671394318342209, 0.012109416536986828, 0.048210766166448593, -0.18203666806221008, -0.073928527534008026, 0.088896311819553375, 0.0073242252692580223, -0.082841761410236359, -0.042585328221321106, -0.11194976419210434, -0.070404775440692902, 0.0024050956126302481, -0.095102742314338684, -0.1097198948264122, 0.065405339002609253, -0.11755707114934921, 0.052075248211622238, 0.018202433362603188, 0.0099547067657113075, -0.027408843860030174, 0.052169475704431534, -0.032852720469236374, 0.0097321709617972374, -0.091588325798511505, 0.034511130303144455, 0.015250811353325844, 0.050139371305704117, -0.15086652338504791, -0.061988502740859985, 0.018822032958269119, -0.023714633658528328, -0.093117594718933105, -0.04349151998758316, -0.13401472568511963, 0.0089751323685050011, 0.043845575302839279, 0.03246590867638588, -0.028871107846498489, 0.02770177461206913, -0.093107923865318298, -0.010209121741354465, 0.018625142052769661, -0.049213539808988571, -0.092343546450138092, 0.023750709369778633, -0.068350657820701599, -0.11927309632301331, 0.03830350935459137, -0.050557903945446014, -0.078814856708049774, -0.026353823021054268, -0.028398014605045319, -0.10811717063188553, 0.0069565330632030964, -0.11643070727586746, -0.051977075636386871, -0.044937670230865479, -0.031662411987781525, -0.11927177757024765, -0.097634188830852509, -0.078333981335163116, -0.013580906204879284, 0.0034763431176543236, -0.1230732798576355, -0.013018854893743992, 0.016942502930760384, -0.096736080944538116, -0.14495919644832611, -0.055042941123247147, -0.040837109088897705, -0.037459991872310638, -0.014099692925810814, -0.11166626960039139, 0.0013206456787884235, 0.0092422729358077049, -0.065366871654987335, -0.12356556951999664, -0.0011744818184524775, -0.11691921204328537, -0.056418672204017639, -0.0032596224918961525, -0.0013303725281730294, -0.15504062175750732, 0.017235735431313515, 0.029957287013530731, -0.015956221148371696, 0.011161607690155506, -0.050585504621267319, -0.14128337800502777, -0.012988366186618805, 0.0021420237608253956, -0.064258284866809845, -0.045037370175123215, -0.036140818148851395, -0.14203420281410217, 0.025165751576423645, 0.0049591250717639923, -0.13967791199684143, -0.019500348716974258, -0.0036588325165212154, -0.1128591001033783, -0.081481747329235077, -0.044361215084791183, -0.041674897074699402, 0.0037194914184510708, -0.010664281435310841, -0.032034814357757568, -0.051359567791223526, -0.0012306713033467531, -0.091790273785591125, -0.060350764542818069, -0.044877137988805771, -0.075054094195365906, 0.031213920563459396, -0.1137581393122673, -0.097759030759334564, -0.084555260837078094, -0.072668150067329407, -0.049230549484491348, -0.01314250286668539, -0.061221141368150711, -0.064528673887252808, -0.12757416069507599, -0.043143238872289658, 0.0074187228456139565, 0.068493463099002838, 0.057978149503469467, -0.08021816611289978, -0.13007169961929321, -0.056432832032442093, -0.072596460580825806, -0.064634814858436584, -0.010421512648463249, -0.055090367794036865, -0.058263454586267471, -0.015726620331406593, -0.019255496561527252, 0.055514443665742874, 0.056133810430765152, -0.061931412667036057, 0.046692855656147003, -0.029444850981235504, 0.00018225166422780603, 0.052374426275491714, -0.053895462304353714, -0.096442088484764099, -0.056147739291191101, -0.088012807071208954, 0.011375815607607365, 0.040559988468885422, -0.066809520125389099, 0.021881898865103722, -0.076781995594501495, -0.10315588861703873, 0.011340649798512459, -0.074779435992240906, 0.05173589289188385, -0.026646919548511505, -0.031328782439231873, 0.0078881643712520599, -0.04992762953042984, 0.018083641305565834, 0.059515547007322311, -0.013145100325345993, -0.087094716727733612, -0.033302552998065948, 0.021002080291509628, -0.0029003634117543697, -0.050191029906272888, -0.035982023924589157, -0.04355635866522789, -0.1135791689157486, 0.0020231110975146294, -0.020271247252821922, -0.039320066571235657, -0.067516274750232697, -0.057302225381135941, -0.11896256357431412, 0.0087806377559900284, -0.035282868891954422, 0.10817883163690567, -0.027822420001029968, 0.069754518568515778, -0.0064179669134318829, 0.0026068291626870632, 0.064574673771858215, 0.031281687319278717, 0.068320415914058685, 0.0095342937856912613, -0.10684322565793991, -0.085931673645973206, 0.083763197064399719, -0.034652657806873322, 0.00021082251623738557, 0.067212566733360291, -0.098165333271026611, -0.0065885111689567566, -0.095174960792064667, 0.037306312471628189, -0.02055690623819828, -0.012235154397785664, -0.067082479596138, -0.019356930628418922, 0.014563204720616341, -0.0014755037846043706, 0.0069544250145554543, -0.05654892697930336, -0.060251209884881973, -0.016212990507483482, -0.10648225247859955, 0.012451400049030781, -0.042562928050756454, -0.059976357966661453, -0.011379699222743511, 0.018910657614469528, -0.11070965975522995, 0.032417066395282745, -0.040516559034585953, -0.077729701995849609, -0.061916086822748184, 0.10655161738395691, -0.047647546976804733, -0.065255723893642426, -0.025215931236743927, -0.033206552267074585, -0.033476270735263824, 0.10856268554925919, 0.00044541788520291448, -0.038588576018810272, -0.010472194291651249, -0.064585648477077484, -0.13408270478248596, 0.15744796395301819, -0.015932826325297356, 0.049102026969194412, 0.080478943884372711, 0.013993240892887115, -0.024262122809886932, 0.086235888302326202, -0.026373853906989098, -0.050179224461317062, 0.072076775133609772, 0.043329648673534393, -0.065856955945491791, 0.055600028485059738, 0.026648484170436859, -0.0018826514715328813, 0.046094808727502823, -0.050296831876039505, -0.090234555304050446, -0.021935015916824341, -0.058562908321619034, -0.0057095861993730068, -0.012455577962100506, 0.01133248396217823, -0.072092391550540924, -0.079726368188858032, -0.043264679610729218, 0.0093478923663496971, 0.032159000635147095, 0.068817287683486938, -0.040842462331056595, 0.029744602739810944, -0.021009774878621101, 0.10012666136026382, -0.025323323905467987, 0.045915249735116959, -0.019995633512735367, 0.050452899187803268, 0.0093168057501316071, 0.1050184965133667, -0.026514856144785881, 0.0052255275659263134, -0.0480235256254673, -0.029097232967615128, -0.03449675440788269, 0.015638129785656929, -0.032812565565109253, 0.066581353545188904, -0.053149890154600143, -0.04242422804236412, 0.087674491107463837, 0.073492787778377533, 0.073089174926280975, 0.10646098107099533, -0.082023389637470245, -0.01295294426381588, 0.024359880015254021, 0.051747370511293411, 0.025472464039921761, 0.11900204420089722, -0.10822801291942596, -0.031723696738481522, -0.028677310794591904, -0.093465805053710938, 0.036767642945051193, 0.010469346307218075, -0.009772605262696743, -0.0073942206799983978, -0.033629696816205978, -0.017479633912444115, 0.057971261441707611, -0.041676156222820282, -0.15523263812065125, -0.011519399471580982, 0.044322222471237183, -0.035866323858499527, -0.035699851810932159, 0.022244106978178024, -0.088129967451095581, -0.036816656589508057, 0.077628754079341888, 0.038872286677360535, -0.091168530285358429, 0.050794966518878937, -0.11808842420578003, -0.10041094571352005, 0.0082144550979137421, 0.065228655934333801, 0.010547105222940445, -0.039641685783863068, -0.12499579787254333, -0.069659009575843811, -0.014923274517059326, -0.08249809592962265, -0.084058947861194611, 0.024282744154334068, -0.066773682832717896, -0.0019985532853752375, -0.030779238790273666, 0.058506552129983902, -0.028258690610527992, 0.019957099109888077, -0.03018810972571373, 0.0294206403195858, -0.095217868685722351, -0.068643681704998016, 0.025778844952583313, -0.04157363623380661, -0.0011753013823181391, -0.11850112676620483, -0.021492471918463707, 0.023858081549406052, 0.021010171622037888, -0.023114357143640518, -0.048208229243755341, -0.037282980978488922, 0.011104397475719452, -0.011839167214930058, 0.00086554675363004208, 0.078030809760093689, 0.033291086554527283, -0.048478934913873672, 0.020383879542350769, -0.00719485804438591, 0.013084412552416325, -0.034722886979579926, -0.041456561535596848, -0.086224786937236786, -0.030370218679308891, -0.06961890310049057, -0.051212389022111893, 0.019216932356357574, 0.03539213165640831, -0.0066352649591863155, -0.03624517098069191, -0.014400053769350052, -0.002088651992380619, -0.0020924571435898542, 0.029830504208803177, -0.066489100456237793, 0.016227234154939651, -0.03606874868273735, -0.053784862160682678, 0.072858236730098724, -0.074336156249046326, -0.010593258775770664, -0.05893196165561676, -0.0051693553104996681, -0.028020801022648811, 0.075788430869579315, -0.052132401615381241, -0.096835695207118988, 0.050225023180246353, -0.073997631669044495, -0.040158361196517944, 0.030315959826111794, -0.088297247886657715, 0.0021165325306355953, 0.054221291095018387, -0.022464647889137268, 0.027488309890031815, 0.034525789320468903, 0.0099231572821736336, 0.0019942461512982845, -0.031479738652706146, -0.082428745925426483, -0.032658237963914871, 0.025292577221989632, -0.061717133969068527, -0.07941310852766037, 0.02792777493596077, -0.062535054981708527, -0.0062323566526174545, 0.020395748317241669, 0.014800087548792362, -0.039834439754486084, 0.062549091875553131, -0.071063637733459473, -0.059211656451225281, 0.014880741946399212, -0.024650106206536293, -0.078085809946060181, 0.051011517643928528, -0.065606050193309784, -0.085585422813892365, 0.020013414323329926, -0.042215365916490555, -0.15808963775634766, -0.018967943266034126, -0.033001452684402466, -0.063594445586204529, 0.10908722132444382, 0.01679760217666626, -0.062280189245939255, 0.068695001304149628, -0.082545205950737, -0.025741919875144958, 0.065783783793449402, 0.014146682806313038, -0.12335814535617828, -0.0018363358685746789, -0.097995944321155548, -0.06999630481004715, 0.092796064913272858, -0.021093646064400673, 0.023275179788470268, -0.010184904560446739, -0.047247026115655899, -0.074715800583362579, 0.016998084262013435, 0.023258497938513756, -0.0097566563636064529, 0.016894850879907608, -0.076848961412906647, -0.052914544939994812, 0.016187332570552826, -0.10210215300321579, -0.095102570950984955, 0.075898528099060059, 0.012613331899046898, -0.083271421492099762, 0.042075980454683304, -0.044774726033210754, -0.025107868015766144, 0.023853417485952377, -0.035262476652860641, -0.089061610400676727, 0.0025139222852885723, -0.069601602852344513, 0.02633940614759922, -0.04225613921880722, -0.080966033041477203, 0.021545832976698875, 0.00914022047072649, 0.10864919424057007, 0.091974630951881409, 0.072876982390880585, 0.014364623464643955, -0.017521422356367111, -0.027276553213596344, 0.068893894553184509, 0.012445280328392982, 0.00084727694047614932, 0.069874905049800873, -0.026476899161934853, 0.012983742170035839, 0.055968072265386581, 0.0911121666431427, 0.023415250703692436, -0.021804135292768478, 0.067291006445884705, -0.0068407449871301651, 0.041798532009124756, -0.014113186858594418, 0.030138865113258362, 0.062505520880222321, -0.043815393000841141, -0.027153568342328072, -0.06019718199968338, 0.04706273227930069, 0.054671779274940491, 0.028103966265916824, 0.0063570220954716206, 0.023655449971556664, -0.0073927058838307858, 0.047569002956151962, 0.047656215727329254, 0.086936160922050476, -0.047520440071821213, -0.017111839726567268, 0.045364033430814743, 0.02042081207036972, 0.094289176166057587, 0.024561280384659767, 0.049435507506132126, -0.0080262972041964531, 0.029917089268565178, 0.033061683177947998, 0.025120992213487625, -0.0078317327424883842, -0.034766010940074921, 0.026091104373335838, 0.00059361913008615375, -0.095380432903766632, 0.03114425390958786, -0.053848825395107269, 0.023905051872134209, 0.011693527922034264, -0.050708133727312088, -0.004456628579646349, 0.00087363924831151962, 0.078336440026760101, 0.00064081809250637889, 0.0051987404003739357, -0.069491036236286163, 0.0025074118748307228, 0.042772706598043442, -0.029561586678028107, -0.021479252725839615, -0.046816382557153702, 0.010154194198548794, -0.008459034375846386, -0.0084086116403341293, -0.054826691746711731, -0.045720912516117096, -0.079152069985866547, -0.052056465297937393, -0.030035680159926414, 0.095143415033817291, -0.041503872722387314, -0.13237793743610382, 0.0063158692792057991, 0.010694190859794617, -0.05299551784992218, 0.11704080551862717, -0.051598638296127319, -0.0031403845641762018, 0.016432896256446838, -0.012404410168528557, -0.075026974081993103, 0.024945288896560669, -0.0075928233563899994, -0.026570243760943413, 0.045160975307226181, 0.0031394155230373144, -0.085486434400081635, 0.024758925661444664, 0.05879974365234375, -0.08017236739397049, 0.0083530619740486145, 0.022764420136809349, -0.017927892506122589, 0.064160667359828949, 0.055244386196136475, -0.11029070615768433, -0.014549120329320431, -0.0092915631830692291, 0.011075930669903755, 0.015460636466741562, 0.052993867546319962, -0.033096820116043091, 0.027485327795147896, -0.024066150188446045, -0.037510499358177185, 0.031860627233982086, 0.024210957810282707, 0.036355204880237579, 0.073293417692184448, -0.095016553997993469, -0.059616267681121826, 0.093964062631130219, 0.1081058606505394, 0.0033853324130177498, 0.075744993984699249, -0.0099852262064814568, -0.072753250598907471, -0.0097110830247402191, -0.035766217857599258, 0.048686053603887558, -0.005756523460149765, 0.0054263491183519363, -0.025297343730926514, 0.0081099448725581169, 0.09676671028137207, -0.086263872683048248, 0.016741687431931496, -0.060234550386667252, -0.06739894300699234, -0.0070278393104672432, 0.053740028291940689, -0.030350536108016968, 0.073881499469280243, 0.038739472627639771, -0.02060990035533905, -0.050382938235998154, 0.079750768840312958, 0.0017946067964658141, -0.034091036766767502, -0.016046779230237007, -0.077961236238479614, 0.010709176771342754, 0.036556635051965714, -0.042899437248706818, 0.058740273118019104, -0.075193397700786591, -0.043677434325218201, 0.016996949911117554, 0.050296507775783539, -0.026190480217337608, 0.085999123752117157, -0.062478899955749512, -0.1058523952960968, 0.079267553985118866, 0.090489432215690613, -0.00040664925472810864, 0.078854039311408997, 0.029231943190097809, 0.0033006670419126749, 0.069928936660289764, 0.015463406220078468, 0.0069730859249830246, 0.098937705159187317, 0.027648674324154854, -0.067016467452049255, -0.023880138993263245, 0.12805800139904022, 0.0040709143504500389, 0.072617769241333008, -0.028053130954504013, -0.047034967690706253, -0.0015960150631144643, 0.093108139932155609, 
